digraph Tree {
node [shape=box, fontname="helvetica"] ;
edge [fontname="helvetica"] ;
0 [label="x[0] <= 0.5\nentropy = 1.0\nsamples = 8693\nvalue = [4315, 4378]"] ;
1 [label="x[3] <= 0.024\nentropy = 0.92\nsamples = 5656\nvalue = [3761, 1895]"] ;
0 -> 1 [labeldistance=2.5, labelangle=45, headlabel="True"] ;
2 [label="x[6] <= 0.012\nentropy = 0.968\nsamples = 4224\nvalue = [2554, 1670]"] ;
1 -> 2 ;
3 [label="x[7] <= 0.015\nentropy = 1.0\nsamples = 2921\nvalue = [1492, 1429]"] ;
2 -> 3 ;
4 [label="x[4] <= 0.066\nentropy = 0.969\nsamples = 2069\nvalue = [820, 1249]"] ;
3 -> 4 ;
5 [label="x[5] <= 0.066\nentropy = 0.985\nsamples = 1908\nvalue = [816, 1092]"] ;
4 -> 5 ;
6 [label="x[1] <= 0.07\nentropy = 0.992\nsamples = 1811\nvalue = [809, 1002]"] ;
5 -> 6 ;
7 [label="x[1] <= 0.006\nentropy = 0.805\nsamples = 240\nvalue = [59, 181]"] ;
6 -> 7 ;
8 [label="entropy = 0.609\nsamples = 107\nvalue = [21, 86]"] ;
7 -> 8 ;
9 [label="x[1] <= 0.044\nentropy = 0.908\nsamples = 133\nvalue = [38, 95]"] ;
7 -> 9 ;
10 [label="entropy = 0.825\nsamples = 85\nvalue = [24, 61]"] ;
9 -> 10 ;
11 [label="x[1] <= 0.057\nentropy = 0.985\nsamples = 48\nvalue = [14, 34]"] ;
9 -> 11 ;
12 [label="entropy = 0.871\nsamples = 37\nvalue = [11, 26]"] ;
11 -> 12 ;
13 [label="entropy = 0.0\nsamples = 11\nvalue = [3, 8]"] ;
11 -> 13 ;
14 [label="x[7] <= 0.004\nentropy = 0.999\nsamples = 1571\nvalue = [750, 821]"] ;
6 -> 14 ;
15 [label="x[6] <= 0.002\nentropy = 0.991\nsamples = 1336\nvalue = [595, 741]"] ;
14 -> 15 ;
16 [label="x[3] <= 0.01\nentropy = 0.977\nsamples = 1107\nvalue = [454, 653]"] ;
15 -> 16 ;
17 [label="x[7] <= 0.001\nentropy = 0.961\nsamples = 951\nvalue = [365, 586]"] ;
16 -> 17 ;
18 [label="x[4] <= 0.032\nentropy = 0.959\nsamples = 858\nvalue = [324, 534]"] ;
17 -> 18 ;
19 [label="x[5] <= 0.028\nentropy = 0.967\nsamples = 783\nvalue = [308, 475]"] ;
18 -> 19 ;
20 [label="x[5] <= 0.026\nentropy = 0.982\nsamples = 583\nvalue = [246, 337]"] ;
19 -> 20 ;
21 [label="x[6] <= 0.0\nentropy = 0.979\nsamples = 571\nvalue = [237, 334]"] ;
20 -> 21 ;
22 [label="x[4] <= 0.026\nentropy = 0.985\nsamples = 504\nvalue = [216, 288]"] ;
21 -> 22 ;
23 [label="x[1] <= 0.715\nentropy = 0.99\nsamples = 453\nvalue = [202, 251]"] ;
22 -> 23 ;
24 [label="x[1] <= 0.69\nentropy = 0.995\nsamples = 440\nvalue = [201, 239]"] ;
23 -> 24 ;
25 [label="x[1] <= 0.222\nentropy = 0.994\nsamples = 437\nvalue = [198, 239]"] ;
24 -> 25 ;
26 [label="x[5] <= 0.01\nentropy = 0.973\nsamples = 206\nvalue = [83, 123]"] ;
25 -> 26 ;
27 [label="x[1] <= 0.146\nentropy = 0.967\nsamples = 203\nvalue = [80, 123]"] ;
26 -> 27 ;
28 [label="x[1] <= 0.133\nentropy = 0.987\nsamples = 159\nvalue = [69, 90]"] ;
27 -> 28 ;
29 [label="x[5] <= 0.0\nentropy = 0.97\nsamples = 133\nvalue = [53, 80]"] ;
28 -> 29 ;
30 [label="x[1] <= 0.095\nentropy = 0.972\nsamples = 132\nvalue = [53, 79]"] ;
29 -> 30 ;
31 [label="x[1] <= 0.082\nentropy = 0.954\nsamples = 48\nvalue = [18, 30]"] ;
30 -> 31 ;
32 [label="entropy = 0.98\nsamples = 24\nvalue = [9, 15]"] ;
31 -> 32 ;
33 [label="entropy = 0.918\nsamples = 24\nvalue = [9, 15]"] ;
31 -> 33 ;
34 [label="x[1] <= 0.12\nentropy = 0.98\nsamples = 84\nvalue = [35, 49]"] ;
30 -> 34 ;
35 [label="x[1] <= inf\nentropy = 0.981\nsamples = 62\nvalue = [26, 36]"] ;
34 -> 35 ;
36 [label="x[1] <= 0.108\nentropy = 0.981\nsamples = 55\nvalue = [23, 32]"] ;
35 -> 36 ;
37 [label="entropy = 0.968\nsamples = 31\nvalue = [13, 18]"] ;
36 -> 37 ;
38 [label="entropy = 0.998\nsamples = 24\nvalue = [10, 14]"] ;
36 -> 38 ;
39 [label="entropy = 0.985\nsamples = 7\nvalue = [3, 4]"] ;
35 -> 39 ;
40 [label="entropy = 0.976\nsamples = 22\nvalue = [9, 13]"] ;
34 -> 40 ;
41 [label="entropy = 0.0\nsamples = 1\nvalue = [0, 1]"] ;
29 -> 41 ;
42 [label="entropy = 0.961\nsamples = 26\nvalue = [16, 10]"] ;
28 -> 42 ;
43 [label="x[4] <= 0.022\nentropy = 0.811\nsamples = 44\nvalue = [11, 33]"] ;
27 -> 43 ;
44 [label="entropy = 0.83\nsamples = 40\nvalue = [11, 29]"] ;
43 -> 44 ;
45 [label="entropy = 0.0\nsamples = 4\nvalue = [0, 4]"] ;
43 -> 45 ;
46 [label="entropy = 0.0\nsamples = 3\nvalue = [3, 0]"] ;
26 -> 46 ;
47 [label="x[1] <= 0.525\nentropy = 1.0\nsamples = 231\nvalue = [115, 116]"] ;
25 -> 47 ;
48 [label="x[7] <= 0.0\nentropy = 0.998\nsamples = 196\nvalue = [104, 92]"] ;
47 -> 48 ;
49 [label="x[3] <= 0.0\nentropy = 0.996\nsamples = 189\nvalue = [101, 88]"] ;
48 -> 49 ;
50 [label="x[7] <= 0.0\nentropy = 0.998\nsamples = 154\nvalue = [80, 74]"] ;
49 -> 50 ;
51 [label="x[5] <= 0.006\nentropy = 0.999\nsamples = 148\nvalue = [77, 71]"] ;
50 -> 51 ;
52 [label="x[5] <= 0.0\nentropy = 0.995\nsamples = 135\nvalue = [73, 62]"] ;
51 -> 52 ;
53 [label="x[1] <= 0.285\nentropy = 0.998\nsamples = 131\nvalue = [69, 62]"] ;
52 -> 53 ;
54 [label="x[1] <= 0.259\nentropy = 0.966\nsamples = 46\nvalue = [28, 18]"] ;
53 -> 54 ;
55 [label="x[1] <= 0.247\nentropy = 0.989\nsamples = 29\nvalue = [15, 14]"] ;
54 -> 55 ;
56 [label="entropy = 0.971\nsamples = 17\nvalue = [9, 8]"] ;
55 -> 56 ;
57 [label="entropy = 0.918\nsamples = 12\nvalue = [6, 6]"] ;
55 -> 57 ;
58 [label="x[4] <= 0.011\nentropy = 0.863\nsamples = 17\nvalue = [13, 4]"] ;
54 -> 58 ;
59 [label="x[1] <= 0.272\nentropy = 0.811\nsamples = 13\nvalue = [11, 2]"] ;
58 -> 59 ;
60 [label="entropy = 0.0\nsamples = 5\nvalue = [5, 0]"] ;
59 -> 60 ;
61 [label="entropy = 0.811\nsamples = 8\nvalue = [6, 2]"] ;
59 -> 61 ;
62 [label="entropy = 0.0\nsamples = 4\nvalue = [2, 2]"] ;
58 -> 62 ;
63 [label="x[5] <= 0.0\nentropy = 0.999\nsamples = 85\nvalue = [41, 44]"] ;
53 -> 63 ;
64 [label="x[3] <= 0.0\nentropy = 1.0\nsamples = 83\nvalue = [41, 42]"] ;
63 -> 64 ;
65 [label="x[1] <= 0.348\nentropy = 1.0\nsamples = 81\nvalue = [40, 41]"] ;
64 -> 65 ;
66 [label="x[1] <= 0.335\nentropy = 0.961\nsamples = 26\nvalue = [10, 16]"] ;
65 -> 66 ;
67 [label="x[2] <= 0.5\nentropy = 0.994\nsamples = 21\nvalue = [10, 11]"] ;
66 -> 67 ;
68 [label="x[1] <= 0.323\nentropy = 1.0\nsamples = 19\nvalue = [10, 9]"] ;
67 -> 68 ;
69 [label="x[1] <= 0.31\nentropy = 0.985\nsamples = 13\nvalue = [6, 7]"] ;
68 -> 69 ;
70 [label="x[1] <= 0.297\nentropy = 0.954\nsamples = 7\nvalue = [4, 3]"] ;
69 -> 70 ;
71 [label="entropy = 0.918\nsamples = 3\nvalue = [1, 2]"] ;
70 -> 71 ;
72 [label="entropy = 0.811\nsamples = 4\nvalue = [3, 1]"] ;
70 -> 72 ;
73 [label="entropy = 0.722\nsamples = 6\nvalue = [2, 4]"] ;
69 -> 73 ;
74 [label="entropy = 0.722\nsamples = 6\nvalue = [4, 2]"] ;
68 -> 74 ;
75 [label="entropy = 0.0\nsamples = 2\nvalue = [0, 2]"] ;
67 -> 75 ;
76 [label="entropy = 0.0\nsamples = 5\nvalue = [0, 5]"] ;
66 -> 76 ;
77 [label="x[4] <= 0.023\nentropy = 0.994\nsamples = 55\nvalue = [30, 25]"] ;
65 -> 77 ;
78 [label="x[1] <= 0.513\nentropy = 0.994\nsamples = 54\nvalue = [29, 25]"] ;
77 -> 78 ;
79 [label="x[1] <= 0.5\nentropy = 0.994\nsamples = 52\nvalue = [28, 24]"] ;
78 -> 79 ;
80 [label="entropy = 0.993\nsamples = 50\nvalue = [27, 23]"] ;
79 -> 80 ;
81 [label="entropy = 0.0\nsamples = 2\nvalue = [1, 1]"] ;
79 -> 81 ;
82 [label="entropy = 0.0\nsamples = 2\nvalue = [1, 1]"] ;
78 -> 82 ;
83 [label="entropy = 0.0\nsamples = 1\nvalue = [1, 0]"] ;
77 -> 83 ;
84 [label="entropy = 0.0\nsamples = 2\nvalue = [1, 1]"] ;
64 -> 84 ;
85 [label="entropy = 0.0\nsamples = 2\nvalue = [0, 2]"] ;
63 -> 85 ;
86 [label="entropy = 0.0\nsamples = 4\nvalue = [4, 0]"] ;
52 -> 86 ;
87 [label="x[4] <= 0.006\nentropy = 0.89\nsamples = 13\nvalue = [4, 9]"] ;
51 -> 87 ;
88 [label="x[4] <= 0.001\nentropy = 1.0\nsamples = 7\nvalue = [4, 3]"] ;
87 -> 88 ;
89 [label="entropy = 0.0\nsamples = 2\nvalue = [2, 0]"] ;
88 -> 89 ;
90 [label="x[4] <= 0.004\nentropy = 0.971\nsamples = 5\nvalue = [2, 3]"] ;
88 -> 90 ;
91 [label="x[5] <= 0.021\nentropy = 0.811\nsamples = 3\nvalue = [0, 3]"] ;
90 -> 91 ;
92 [label="entropy = 0.0\nsamples = 1\nvalue = [0, 1]"] ;
91 -> 92 ;
93 [label="entropy = 0.0\nsamples = 2\nvalue = [0, 2]"] ;
91 -> 93 ;
94 [label="entropy = 0.0\nsamples = 2\nvalue = [2, 0]"] ;
90 -> 94 ;
95 [label="entropy = 0.0\nsamples = 6\nvalue = [0, 6]"] ;
87 -> 95 ;
96 [label="x[5] <= 0.0\nentropy = 0.918\nsamples = 6\nvalue = [3, 3]"] ;
50 -> 96 ;
97 [label="entropy = 0.0\nsamples = 2\nvalue = [2, 0]"] ;
96 -> 97 ;
98 [label="x[4] <= 0.008\nentropy = 0.811\nsamples = 4\nvalue = [1, 3]"] ;
96 -> 98 ;
99 [label="entropy = 0.0\nsamples = 1\nvalue = [1, 0]"] ;
98 -> 99 ;
100 [label="entropy = 0.0\nsamples = 3\nvalue = [0, 3]"] ;
98 -> 100 ;
101 [label="x[3] <= 0.001\nentropy = 0.987\nsamples = 35\nvalue = [21, 14]"] ;
49 -> 101 ;
102 [label="entropy = 0.0\nsamples = 6\nvalue = [6, 0]"] ;
101 -> 102 ;
103 [label="x[1] <= 0.234\nentropy = 0.999\nsamples = 29\nvalue = [15, 14]"] ;
101 -> 103 ;
104 [label="entropy = 0.0\nsamples = 3\nvalue = [3, 0]"] ;
103 -> 104 ;
105 [label="x[1] <= 0.297\nentropy = 0.996\nsamples = 26\nvalue = [12, 14]"] ;
103 -> 105 ;
106 [label="x[1] <= 0.247\nentropy = 0.503\nsamples = 9\nvalue = [1, 8]"] ;
105 -> 106 ;
107 [label="entropy = 1.0\nsamples = 2\nvalue = [1, 1]"] ;
106 -> 107 ;
108 [label="entropy = 0.0\nsamples = 7\nvalue = [0, 7]"] ;
106 -> 108 ;
109 [label="x[7] <= 0.0\nentropy = 0.937\nsamples = 17\nvalue = [11, 6]"] ;
105 -> 109 ;
110 [label="x[3] <= 0.006\nentropy = 0.896\nsamples = 15\nvalue = [10, 5]"] ;
109 -> 110 ;
111 [label="entropy = 0.503\nsamples = 8\nvalue = [7, 1]"] ;
110 -> 111 ;
112 [label="x[5] <= 0.0\nentropy = 0.918\nsamples = 7\nvalue = [3, 4]"] ;
110 -> 112 ;
113 [label="x[4] <= 0.022\nentropy = 0.811\nsamples = 4\nvalue = [3, 1]"] ;
112 -> 113 ;
114 [label="x[3] <= 0.009\nentropy = 1.0\nsamples = 2\nvalue = [1, 1]"] ;
113 -> 114 ;
115 [label="entropy = 0.0\nsamples = 1\nvalue = [1, 0]"] ;
114 -> 115 ;
116 [label="entropy = 0.0\nsamples = 1\nvalue = [0, 1]"] ;
114 -> 116 ;
117 [label="entropy = 0.0\nsamples = 2\nvalue = [2, 0]"] ;
113 -> 117 ;
118 [label="entropy = 0.0\nsamples = 3\nvalue = [0, 3]"] ;
112 -> 118 ;
119 [label="entropy = 0.0\nsamples = 2\nvalue = [1, 1]"] ;
109 -> 119 ;
120 [label="entropy = 0.0\nsamples = 7\nvalue = [3, 4]"] ;
48 -> 120 ;
121 [label="x[1] <= 0.652\nentropy = 0.863\nsamples = 35\nvalue = [11, 24]"] ;
47 -> 121 ;
122 [label="x[3] <= 0.003\nentropy = 0.755\nsamples = 22\nvalue = [4, 18]"] ;
121 -> 122 ;
123 [label="x[1] <= 0.639\nentropy = 0.722\nsamples = 19\nvalue = [3, 16]"] ;
122 -> 123 ;
124 [label="x[1] <= 0.614\nentropy = 0.629\nsamples = 18\nvalue = [3, 15]"] ;
123 -> 124 ;
125 [label="x[1] <= 0.601\nentropy = 0.544\nsamples = 15\nvalue = [2, 13]"] ;
124 -> 125 ;
126 [label="x[5] <= 0.023\nentropy = 0.619\nsamples = 12\nvalue = [1, 11]"] ;
125 -> 126 ;
127 [label="entropy = 0.414\nsamples = 11\nvalue = [1, 10]"] ;
126 -> 127 ;
128 [label="entropy = 0.0\nsamples = 1\nvalue = [0, 1]"] ;
126 -> 128 ;
129 [label="entropy = 0.0\nsamples = 3\nvalue = [1, 2]"] ;
125 -> 129 ;
130 [label="x[1] <= 0.627\nentropy = 1.0\nsamples = 3\nvalue = [1, 2]"] ;
124 -> 130 ;
131 [label="entropy = 0.918\nsamples = 2\nvalue = [1, 1]"] ;
130 -> 131 ;
132 [label="entropy = 0.0\nsamples = 1\nvalue = [0, 1]"] ;
130 -> 132 ;
133 [label="entropy = 0.0\nsamples = 1\nvalue = [0, 1]"] ;
123 -> 133 ;
134 [label="entropy = 0.0\nsamples = 3\nvalue = [1, 2]"] ;
122 -> 134 ;
135 [label="x[4] <= 0.02\nentropy = 1.0\nsamples = 13\nvalue = [7, 6]"] ;
121 -> 135 ;
136 [label="x[4] <= 0.005\nentropy = 1.0\nsamples = 11\nvalue = [5, 6]"] ;
135 -> 136 ;
137 [label="entropy = 0.971\nsamples = 9\nvalue = [4, 5]"] ;
136 -> 137 ;
138 [label="entropy = 0.0\nsamples = 2\nvalue = [1, 1]"] ;
136 -> 138 ;
139 [label="entropy = 0.0\nsamples = 2\nvalue = [2, 0]"] ;
135 -> 139 ;
140 [label="entropy = 0.0\nsamples = 3\nvalue = [3, 0]"] ;
24 -> 140 ;
141 [label="x[4] <= 0.022\nentropy = 0.391\nsamples = 13\nvalue = [1, 12]"] ;
23 -> 141 ;
142 [label="entropy = 0.391\nsamples = 12\nvalue = [1, 11]"] ;
141 -> 142 ;
143 [label="entropy = 0.0\nsamples = 1\nvalue = [0, 1]"] ;
141 -> 143 ;
144 [label="x[3] <= 0.001\nentropy = 0.863\nsamples = 51\nvalue = [14, 37]"] ;
22 -> 144 ;
145 [label="x[4] <= 0.03\nentropy = 0.91\nsamples = 39\nvalue = [13, 26]"] ;
144 -> 145 ;
146 [label="x[5] <= 0.001\nentropy = 0.811\nsamples = 31\nvalue = [7, 24]"] ;
145 -> 146 ;
147 [label="entropy = 0.529\nsamples = 24\nvalue = [3, 21]"] ;
146 -> 147 ;
148 [label="x[5] <= 0.002\nentropy = 0.918\nsamples = 7\nvalue = [4, 3]"] ;
146 -> 148 ;
149 [label="x[7] <= 0.0\nentropy = 0.722\nsamples = 4\nvalue = [4, 0]"] ;
148 -> 149 ;
150 [label="entropy = 0.0\nsamples = 3\nvalue = [3, 0]"] ;
149 -> 150 ;
151 [label="entropy = 0.0\nsamples = 1\nvalue = [1, 0]"] ;
149 -> 151 ;
152 [label="entropy = 0.0\nsamples = 3\nvalue = [0, 3]"] ;
148 -> 152 ;
153 [label="x[4] <= 0.031\nentropy = 0.863\nsamples = 8\nvalue = [6, 2]"] ;
145 -> 153 ;
154 [label="entropy = 0.0\nsamples = 3\nvalue = [3, 0]"] ;
153 -> 154 ;
155 [label="x[1] <= 0.247\nentropy = 0.971\nsamples = 5\nvalue = [3, 2]"] ;
153 -> 155 ;
156 [label="entropy = 0.0\nsamples = 2\nvalue = [2, 0]"] ;
155 -> 156 ;
157 [label="x[1] <= 0.494\nentropy = 0.918\nsamples = 3\nvalue = [1, 2]"] ;
155 -> 157 ;
158 [label="x[1] <= 0.367\nentropy = 0.918\nsamples = 2\nvalue = [0, 2]"] ;
157 -> 158 ;
159 [label="entropy = -2.0\nsamples = 1\nvalue = [0, 1]"] ;
158 -> 159 ;
160 [label="entropy = 0.0\nsamples = 1\nvalue = [0, 1]"] ;
158 -> 160 ;
161 [label="entropy = 0.0\nsamples = 1\nvalue = [1, 0]"] ;
157 -> 161 ;
162 [label="x[4] <= 0.031\nentropy = 0.439\nsamples = 12\nvalue = [1, 11]"] ;
144 -> 162 ;
163 [label="entropy = 0.414\nsamples = 11\nvalue = [1, 10]"] ;
162 -> 163 ;
164 [label="entropy = 0.0\nsamples = 1\nvalue = [0, 1]"] ;
162 -> 164 ;
165 [label="x[4] <= 0.024\nentropy = 0.863\nsamples = 67\nvalue = [21, 46]"] ;
21 -> 165 ;
166 [label="x[6] <= 0.001\nentropy = 0.764\nsamples = 43\nvalue = [8, 35]"] ;
165 -> 166 ;
167 [label="x[3] <= 0.007\nentropy = 0.619\nsamples = 38\nvalue = [5, 33]"] ;
166 -> 167 ;
168 [label="x[5] <= 0.001\nentropy = 0.414\nsamples = 35\nvalue = [3, 32]"] ;
167 -> 168 ;
169 [label="entropy = 0.0\nsamples = 11\nvalue = [0, 11]"] ;
168 -> 169 ;
170 [label="x[5] <= 0.003\nentropy = 0.544\nsamples = 24\nvalue = [3, 21]"] ;
168 -> 170 ;
171 [label="entropy = 0.0\nsamples = 1\nvalue = [1, 0]"] ;
170 -> 171 ;
172 [label="x[6] <= 0.0\nentropy = 0.426\nsamples = 23\nvalue = [2, 21]"] ;
170 -> 172 ;
173 [label="entropy = 0.0\nsamples = 12\nvalue = [0, 12]"] ;
172 -> 173 ;
174 [label="x[6] <= 0.0\nentropy = 0.722\nsamples = 11\nvalue = [2, 9]"] ;
172 -> 174 ;
175 [label="x[4] <= 0.001\nentropy = 0.863\nsamples = 6\nvalue = [2, 4]"] ;
174 -> 175 ;
176 [label="entropy = 0.0\nsamples = 1\nvalue = [1, 0]"] ;
175 -> 176 ;
177 [label="x[1] <= 0.297\nentropy = 0.722\nsamples = 5\nvalue = [1, 4]"] ;
175 -> 177 ;
178 [label="x[4] <= 0.006\nentropy = 0.811\nsamples = 3\nvalue = [1, 2]"] ;
177 -> 178 ;
179 [label="entropy = 0.0\nsamples = 1\nvalue = [0, 1]"] ;
178 -> 179 ;
180 [label="x[3] <= 0.0\nentropy = 1.0\nsamples = 2\nvalue = [1, 1]"] ;
178 -> 180 ;
181 [label="entropy = 0.0\nsamples = 1\nvalue = [1, 0]"] ;
180 -> 181 ;
182 [label="entropy = 0.0\nsamples = 1\nvalue = [0, 1]"] ;
180 -> 182 ;
183 [label="entropy = 0.0\nsamples = 2\nvalue = [0, 2]"] ;
177 -> 183 ;
184 [label="entropy = 0.0\nsamples = 5\nvalue = [0, 5]"] ;
174 -> 184 ;
185 [label="entropy = 0.0\nsamples = 3\nvalue = [2, 1]"] ;
167 -> 185 ;
186 [label="x[4] <= 0.023\nentropy = 1.0\nsamples = 5\nvalue = [3, 2]"] ;
166 -> 186 ;
187 [label="x[6] <= 0.001\nentropy = 0.811\nsamples = 3\nvalue = [3, 0]"] ;
186 -> 187 ;
188 [label="entropy = 0.0\nsamples = 2\nvalue = [2, 0]"] ;
187 -> 188 ;
189 [label="entropy = 0.0\nsamples = 1\nvalue = [1, 0]"] ;
187 -> 189 ;
190 [label="entropy = 0.0\nsamples = 2\nvalue = [0, 2]"] ;
186 -> 190 ;
191 [label="x[5] <= 0.0\nentropy = 1.0\nsamples = 24\nvalue = [13, 11]"] ;
165 -> 191 ;
192 [label="x[6] <= 0.001\nentropy = 0.811\nsamples = 12\nvalue = [3, 9]"] ;
191 -> 192 ;
193 [label="x[6] <= 0.001\nentropy = 0.845\nsamples = 10\nvalue = [3, 7]"] ;
192 -> 193 ;
194 [label="x[7] <= 0.0\nentropy = 0.764\nsamples = 8\nvalue = [1, 7]"] ;
193 -> 194 ;
195 [label="x[6] <= 0.0\nentropy = 0.592\nsamples = 6\nvalue = [0, 6]"] ;
194 -> 195 ;
196 [label="entropy = 0.0\nsamples = 2\nvalue = [0, 2]"] ;
195 -> 196 ;
197 [label="entropy = 0.0\nsamples = 4\nvalue = [0, 4]"] ;
195 -> 197 ;
198 [label="entropy = 0.0\nsamples = 2\nvalue = [1, 1]"] ;
194 -> 198 ;
199 [label="entropy = 0.0\nsamples = 2\nvalue = [2, 0]"] ;
193 -> 199 ;
200 [label="entropy = 0.0\nsamples = 2\nvalue = [0, 2]"] ;
192 -> 200 ;
201 [label="x[6] <= 0.001\nentropy = 0.65\nsamples = 12\nvalue = [10, 2]"] ;
191 -> 201 ;
202 [label="x[5] <= 0.0\nentropy = 0.65\nsamples = 11\nvalue = [9, 2]"] ;
201 -> 202 ;
203 [label="entropy = 0.0\nsamples = 5\nvalue = [5, 0]"] ;
202 -> 203 ;
204 [label="x[6] <= 0.0\nentropy = 0.918\nsamples = 6\nvalue = [4, 2]"] ;
202 -> 204 ;
205 [label="x[1] <= 0.266\nentropy = 0.918\nsamples = 3\nvalue = [2, 1]"] ;
204 -> 205 ;
206 [label="entropy = 0.0\nsamples = 2\nvalue = [2, 0]"] ;
205 -> 206 ;
207 [label="entropy = 0.0\nsamples = 1\nvalue = [0, 1]"] ;
205 -> 207 ;
208 [label="entropy = 0.0\nsamples = 3\nvalue = [2, 1]"] ;
204 -> 208 ;
209 [label="entropy = 0.0\nsamples = 1\nvalue = [1, 0]"] ;
201 -> 209 ;
210 [label="x[4] <= 0.0\nentropy = 0.811\nsamples = 12\nvalue = [9, 3]"] ;
20 -> 210 ;
211 [label="x[1] <= 0.443\nentropy = 0.811\nsamples = 7\nvalue = [5, 2]"] ;
210 -> 211 ;
212 [label="x[1] <= 0.272\nentropy = 0.722\nsamples = 4\nvalue = [4, 0]"] ;
211 -> 212 ;
213 [label="entropy = 0.0\nsamples = 1\nvalue = [1, 0]"] ;
212 -> 213 ;
214 [label="entropy = 0.0\nsamples = 3\nvalue = [3, 0]"] ;
212 -> 214 ;
215 [label="x[5] <= 0.027\nentropy = 1.0\nsamples = 3\nvalue = [1, 2]"] ;
211 -> 215 ;
216 [label="entropy = 0.0\nsamples = 1\nvalue = [1, 0]"] ;
215 -> 216 ;
217 [label="entropy = 0.0\nsamples = 2\nvalue = [0, 2]"] ;
215 -> 217 ;
218 [label="x[1] <= 0.234\nentropy = 0.811\nsamples = 5\nvalue = [4, 1]"] ;
210 -> 218 ;
219 [label="x[3] <= 0.004\nentropy = 1.0\nsamples = 2\nvalue = [1, 1]"] ;
218 -> 219 ;
220 [label="entropy = 0.0\nsamples = 1\nvalue = [0, 1]"] ;
219 -> 220 ;
221 [label="entropy = 0.0\nsamples = 1\nvalue = [1, 0]"] ;
219 -> 221 ;
222 [label="entropy = 0.0\nsamples = 3\nvalue = [3, 0]"] ;
218 -> 222 ;
223 [label="x[7] <= 0.001\nentropy = 0.893\nsamples = 200\nvalue = [62, 138]"] ;
19 -> 223 ;
224 [label="x[6] <= 0.001\nentropy = 0.895\nsamples = 197\nvalue = [60, 137]"] ;
223 -> 224 ;
225 [label="x[1] <= 0.576\nentropy = 0.898\nsamples = 188\nvalue = [60, 128]"] ;
224 -> 225 ;
226 [label="x[5] <= 0.032\nentropy = 0.932\nsamples = 161\nvalue = [56, 105]"] ;
225 -> 226 ;
227 [label="x[7] <= 0.0\nentropy = 0.731\nsamples = 44\nvalue = [9, 35]"] ;
226 -> 227 ;
228 [label="x[1] <= 0.291\nentropy = 0.702\nsamples = 40\nvalue = [6, 34]"] ;
227 -> 228 ;
229 [label="entropy = 0.0\nsamples = 19\nvalue = [0, 19]"] ;
228 -> 229 ;
230 [label="x[6] <= 0.0\nentropy = 0.863\nsamples = 21\nvalue = [6, 15]"] ;
228 -> 230 ;
231 [label="x[1] <= 0.424\nentropy = 0.831\nsamples = 17\nvalue = [4, 13]"] ;
230 -> 231 ;
232 [label="x[1] <= 0.38\nentropy = 0.918\nsamples = 10\nvalue = [4, 6]"] ;
231 -> 232 ;
233 [label="x[5] <= 0.031\nentropy = 0.918\nsamples = 7\nvalue = [1, 6]"] ;
232 -> 233 ;
234 [label="x[5] <= 0.029\nentropy = 0.592\nsamples = 5\nvalue = [0, 5]"] ;
233 -> 234 ;
235 [label="entropy = 0.0\nsamples = 1\nvalue = [0, 1]"] ;
234 -> 235 ;
236 [label="entropy = 0.0\nsamples = 4\nvalue = [0, 4]"] ;
234 -> 236 ;
237 [label="entropy = 0.0\nsamples = 2\nvalue = [1, 1]"] ;
233 -> 237 ;
238 [label="entropy = 0.0\nsamples = 3\nvalue = [3, 0]"] ;
232 -> 238 ;
239 [label="entropy = 0.0\nsamples = 7\nvalue = [0, 7]"] ;
231 -> 239 ;
240 [label="x[5] <= 0.029\nentropy = 1.0\nsamples = 4\nvalue = [2, 2]"] ;
230 -> 240 ;
241 [label="entropy = 0.0\nsamples = 1\nvalue = [1, 0]"] ;
240 -> 241 ;
242 [label="x[1] <= 0.424\nentropy = 0.918\nsamples = 3\nvalue = [1, 2]"] ;
240 -> 242 ;
243 [label="entropy = 0.0\nsamples = 1\nvalue = [0, 1]"] ;
242 -> 243 ;
244 [label="x[5] <= 0.031\nentropy = 1.0\nsamples = 2\nvalue = [1, 1]"] ;
242 -> 244 ;
245 [label="entropy = 0.0\nsamples = 1\nvalue = [1, 0]"] ;
244 -> 245 ;
246 [label="entropy = 1.0\nsamples = 1\nvalue = [0, 1]"] ;
244 -> 246 ;
247 [label="x[3] <= 0.0\nentropy = 1.0\nsamples = 4\nvalue = [3, 1]"] ;
227 -> 247 ;
248 [label="entropy = 0.0\nsamples = 2\nvalue = [2, 0]"] ;
247 -> 248 ;
249 [label="x[6] <= 0.0\nentropy = 1.0\nsamples = 2\nvalue = [1, 1]"] ;
247 -> 249 ;
250 [label="entropy = 0.0\nsamples = 1\nvalue = [1, 0]"] ;
249 -> 250 ;
251 [label="entropy = 1.0\nsamples = 1\nvalue = [0, 1]"] ;
249 -> 251 ;
252 [label="x[4] <= 0.003\nentropy = 0.972\nsamples = 117\nvalue = [47, 70]"] ;
226 -> 252 ;
253 [label="x[1] <= 0.222\nentropy = 0.985\nsamples = 108\nvalue = [47, 61]"] ;
252 -> 253 ;
254 [label="x[5] <= 0.037\nentropy = 0.811\nsamples = 12\nvalue = [9, 3]"] ;
253 -> 254 ;
255 [label="entropy = 0.0\nsamples = 5\nvalue = [5, 0]"] ;
254 -> 255 ;
256 [label="x[3] <= 0.001\nentropy = 0.985\nsamples = 7\nvalue = [4, 3]"] ;
254 -> 256 ;
257 [label="x[7] <= 0.0\nentropy = 0.918\nsamples = 3\nvalue = [0, 3]"] ;
256 -> 257 ;
258 [label="entropy = 0.0\nsamples = 2\nvalue = [0, 2]"] ;
257 -> 258 ;
259 [label="entropy = 0.0\nsamples = 1\nvalue = [0, 1]"] ;
257 -> 259 ;
260 [label="x[1] <= 0.184\nentropy = 0.811\nsamples = 4\nvalue = [4, 0]"] ;
256 -> 260 ;
261 [label="entropy = 0.0\nsamples = 1\nvalue = [1, 0]"] ;
260 -> 261 ;
262 [label="entropy = 0.0\nsamples = 3\nvalue = [3, 0]"] ;
260 -> 262 ;
263 [label="x[1] <= 0.323\nentropy = 0.968\nsamples = 96\nvalue = [38, 58]"] ;
253 -> 263 ;
264 [label="x[4] <= 0.001\nentropy = 0.879\nsamples = 47\nvalue = [14, 33]"] ;
263 -> 264 ;
265 [label="x[1] <= 0.31\nentropy = 0.894\nsamples = 44\nvalue = [13, 31]"] ;
264 -> 265 ;
266 [label="x[7] <= 0.0\nentropy = 0.901\nsamples = 40\nvalue = [12, 28]"] ;
265 -> 266 ;
267 [label="x[6] <= 0.001\nentropy = 0.9\nsamples = 37\nvalue = [12, 25]"] ;
266 -> 267 ;
268 [label="x[5] <= 0.033\nentropy = 0.918\nsamples = 35\nvalue = [12, 23]"] ;
267 -> 268 ;
269 [label="entropy = 0.0\nsamples = 2\nvalue = [2, 0]"] ;
268 -> 269 ;
270 [label="x[5] <= 0.034\nentropy = 0.885\nsamples = 33\nvalue = [10, 23]"] ;
268 -> 270 ;
271 [label="entropy = 0.0\nsamples = 5\nvalue = [0, 5]"] ;
270 -> 271 ;
272 [label="x[1] <= 0.234\nentropy = 0.94\nsamples = 28\nvalue = [10, 18]"] ;
270 -> 272 ;
273 [label="entropy = 0.0\nsamples = 4\nvalue = [0, 4]"] ;
272 -> 273 ;
274 [label="x[5] <= 0.061\nentropy = 0.98\nsamples = 24\nvalue = [10, 14]"] ;
272 -> 274 ;
275 [label="x[5] <= 0.052\nentropy = 0.966\nsamples = 22\nvalue = [8, 14]"] ;
274 -> 275 ;
276 [label="x[6] <= 0.0\nentropy = 0.982\nsamples = 18\nvalue = [8, 10]"] ;
275 -> 276 ;
277 [label="x[6] <= 0.0\nentropy = 0.977\nsamples = 16\nvalue = [7, 9]"] ;
276 -> 277 ;
278 [label="x[1] <= 0.272\nentropy = 0.997\nsamples = 14\nvalue = [6, 8]"] ;
277 -> 278 ;
279 [label="x[3] <= 0.005\nentropy = 0.991\nsamples = 8\nvalue = [5, 3]"] ;
278 -> 279 ;
280 [label="x[3] <= 0.001\nentropy = 0.954\nsamples = 7\nvalue = [4, 3]"] ;
279 -> 280 ;
281 [label="x[5] <= 0.037\nentropy = 1.0\nsamples = 5\nvalue = [3, 2]"] ;
280 -> 281 ;
282 [label="x[5] <= 0.035\nentropy = 1.0\nsamples = 3\nvalue = [1, 2]"] ;
281 -> 282 ;
283 [label="entropy = 0.0\nsamples = 1\nvalue = [1, 0]"] ;
282 -> 283 ;
284 [label="entropy = 0.0\nsamples = 2\nvalue = [0, 2]"] ;
282 -> 284 ;
285 [label="entropy = 0.0\nsamples = 2\nvalue = [2, 0]"] ;
281 -> 285 ;
286 [label="entropy = 0.0\nsamples = 2\nvalue = [1, 1]"] ;
280 -> 286 ;
287 [label="entropy = 0.0\nsamples = 1\nvalue = [1, 0]"] ;
279 -> 287 ;
288 [label="x[5] <= 0.034\nentropy = 0.722\nsamples = 6\nvalue = [1, 5]"] ;
278 -> 288 ;
289 [label="entropy = 0.0\nsamples = 1\nvalue = [1, 0]"] ;
288 -> 289 ;
290 [label="entropy = 0.0\nsamples = 5\nvalue = [0, 5]"] ;
288 -> 290 ;
291 [label="entropy = 0.0\nsamples = 2\nvalue = [1, 1]"] ;
277 -> 291 ;
292 [label="entropy = 0.0\nsamples = 2\nvalue = [1, 1]"] ;
276 -> 292 ;
293 [label="entropy = 0.0\nsamples = 4\nvalue = [0, 4]"] ;
275 -> 293 ;
294 [label="entropy = 0.0\nsamples = 2\nvalue = [2, 0]"] ;
274 -> 294 ;
295 [label="entropy = 0.0\nsamples = 2\nvalue = [0, 2]"] ;
267 -> 295 ;
296 [label="entropy = 0.0\nsamples = 3\nvalue = [0, 3]"] ;
266 -> 296 ;
297 [label="entropy = 0.0\nsamples = 4\nvalue = [1, 3]"] ;
265 -> 297 ;
298 [label="entropy = 0.0\nsamples = 3\nvalue = [1, 2]"] ;
264 -> 298 ;
299 [label="x[7] <= 0.0\nentropy = 1.0\nsamples = 49\nvalue = [24, 25]"] ;
263 -> 299 ;
300 [label="x[1] <= 0.335\nentropy = 0.999\nsamples = 45\nvalue = [24, 21]"] ;
299 -> 300 ;
301 [label="entropy = 0.0\nsamples = 3\nvalue = [3, 0]"] ;
300 -> 301 ;
302 [label="x[3] <= 0.0\nentropy = 1.0\nsamples = 42\nvalue = [21, 21]"] ;
300 -> 302 ;
303 [label="x[5] <= 0.034\nentropy = 0.852\nsamples = 18\nvalue = [5, 13]"] ;
302 -> 303 ;
304 [label="entropy = 0.0\nsamples = 1\nvalue = [1, 0]"] ;
303 -> 304 ;
305 [label="x[5] <= 0.046\nentropy = 0.787\nsamples = 17\nvalue = [4, 13]"] ;
303 -> 305 ;
306 [label="entropy = 0.567\nsamples = 14\nvalue = [2, 12]"] ;
305 -> 306 ;
307 [label="entropy = 0.0\nsamples = 3\nvalue = [2, 1]"] ;
305 -> 307 ;
308 [label="x[5] <= 0.038\nentropy = 0.918\nsamples = 24\nvalue = [16, 8]"] ;
302 -> 308 ;
309 [label="entropy = 0.0\nsamples = 8\nvalue = [8, 0]"] ;
308 -> 309 ;
310 [label="x[5] <= 0.04\nentropy = 1.0\nsamples = 16\nvalue = [8, 8]"] ;
308 -> 310 ;
311 [label="entropy = 0.0\nsamples = 2\nvalue = [0, 2]"] ;
310 -> 311 ;
312 [label="x[5] <= 0.049\nentropy = 0.985\nsamples = 14\nvalue = [8, 6]"] ;
310 -> 312 ;
313 [label="x[5] <= 0.048\nentropy = 0.592\nsamples = 7\nvalue = [6, 1]"] ;
312 -> 313 ;
314 [label="entropy = 0.592\nsamples = 6\nvalue = [5, 1]"] ;
313 -> 314 ;
315 [label="entropy = 0.0\nsamples = 1\nvalue = [1, 0]"] ;
313 -> 315 ;
316 [label="x[6] <= 0.0\nentropy = 0.863\nsamples = 7\nvalue = [2, 5]"] ;
312 -> 316 ;
317 [label="x[1] <= 0.38\nentropy = 0.722\nsamples = 4\nvalue = [0, 4]"] ;
316 -> 317 ;
318 [label="entropy = 0.0\nsamples = 1\nvalue = [0, 1]"] ;
317 -> 318 ;
319 [label="entropy = 0.0\nsamples = 3\nvalue = [0, 3]"] ;
317 -> 319 ;
320 [label="x[3] <= 0.0\nentropy = 1.0\nsamples = 3\nvalue = [2, 1]"] ;
316 -> 320 ;
321 [label="entropy = 0.0\nsamples = 1\nvalue = [0, 1]"] ;
320 -> 321 ;
322 [label="entropy = 0.0\nsamples = 2\nvalue = [2, 0]"] ;
320 -> 322 ;
323 [label="entropy = 0.0\nsamples = 4\nvalue = [0, 4]"] ;
299 -> 323 ;
324 [label="entropy = 0.0\nsamples = 9\nvalue = [0, 9]"] ;
252 -> 324 ;
325 [label="x[1] <= 0.658\nentropy = 0.605\nsamples = 27\nvalue = [4, 23]"] ;
225 -> 325 ;
326 [label="entropy = 0.0\nsamples = 11\nvalue = [0, 11]"] ;
325 -> 326 ;
327 [label="x[3] <= 0.002\nentropy = 0.811\nsamples = 16\nvalue = [4, 12]"] ;
325 -> 327 ;
328 [label="x[1] <= 0.677\nentropy = 0.837\nsamples = 12\nvalue = [3, 9]"] ;
327 -> 328 ;
329 [label="entropy = 0.918\nsamples = 3\nvalue = [2, 1]"] ;
328 -> 329 ;
330 [label="x[5] <= 0.036\nentropy = 0.503\nsamples = 9\nvalue = [1, 8]"] ;
328 -> 330 ;
331 [label="x[6] <= 0.0\nentropy = 0.811\nsamples = 4\nvalue = [1, 3]"] ;
330 -> 331 ;
332 [label="entropy = 0.0\nsamples = 2\nvalue = [0, 2]"] ;
331 -> 332 ;
333 [label="entropy = 0.0\nsamples = 2\nvalue = [1, 1]"] ;
331 -> 333 ;
334 [label="entropy = 0.0\nsamples = 5\nvalue = [0, 5]"] ;
330 -> 334 ;
335 [label="entropy = 0.0\nsamples = 4\nvalue = [1, 3]"] ;
327 -> 335 ;
336 [label="entropy = 0.0\nsamples = 9\nvalue = [0, 9]"] ;
224 -> 336 ;
337 [label="entropy = 0.0\nsamples = 3\nvalue = [2, 1]"] ;
223 -> 337 ;
338 [label="x[5] <= 0.064\nentropy = 0.748\nsamples = 75\nvalue = [16, 59]"] ;
18 -> 338 ;
339 [label="x[5] <= 0.003\nentropy = 0.727\nsamples = 74\nvalue = [15, 59]"] ;
338 -> 339 ;
340 [label="x[6] <= 0.0\nentropy = 0.826\nsamples = 54\nvalue = [14, 40]"] ;
339 -> 340 ;
341 [label="x[4] <= 0.054\nentropy = 0.872\nsamples = 35\nvalue = [12, 23]"] ;
340 -> 341 ;
342 [label="x[5] <= 0.0\nentropy = 0.963\nsamples = 31\nvalue = [12, 19]"] ;
341 -> 342 ;
343 [label="x[4] <= 0.05\nentropy = 0.983\nsamples = 22\nvalue = [9, 13]"] ;
342 -> 343 ;
344 [label="x[1] <= 0.209\nentropy = 0.934\nsamples = 20\nvalue = [7, 13]"] ;
343 -> 344 ;
345 [label="entropy = 0.0\nsamples = 2\nvalue = [0, 2]"] ;
344 -> 345 ;
346 [label="x[4] <= 0.047\nentropy = 0.964\nsamples = 18\nvalue = [7, 11]"] ;
344 -> 346 ;
347 [label="x[4] <= 0.043\nentropy = 0.989\nsamples = 16\nvalue = [7, 9]"] ;
346 -> 347 ;
348 [label="x[4] <= 0.036\nentropy = 0.918\nsamples = 12\nvalue = [4, 8]"] ;
347 -> 348 ;
349 [label="x[4] <= 0.035\nentropy = 0.991\nsamples = 9\nvalue = [4, 5]"] ;
348 -> 349 ;
350 [label="x[1] <= 0.285\nentropy = 0.863\nsamples = 7\nvalue = [2, 5]"] ;
349 -> 350 ;
351 [label="entropy = 0.0\nsamples = 1\nvalue = [1, 0]"] ;
350 -> 351 ;
352 [label="x[4] <= 0.034\nentropy = 0.65\nsamples = 6\nvalue = [1, 5]"] ;
350 -> 352 ;
353 [label="entropy = 1.0\nsamples = 2\nvalue = [1, 1]"] ;
352 -> 353 ;
354 [label="entropy = 0.0\nsamples = 4\nvalue = [0, 4]"] ;
352 -> 354 ;
355 [label="entropy = 0.0\nsamples = 2\nvalue = [2, 0]"] ;
349 -> 355 ;
356 [label="entropy = 0.0\nsamples = 3\nvalue = [0, 3]"] ;
348 -> 356 ;
357 [label="x[3] <= 0.002\nentropy = 0.811\nsamples = 4\nvalue = [3, 1]"] ;
347 -> 357 ;
358 [label="entropy = -4.755\nsamples = 2\nvalue = [2, 0]"] ;
357 -> 358 ;
359 [label="entropy = 0.0\nsamples = 2\nvalue = [1, 1]"] ;
357 -> 359 ;
360 [label="entropy = 0.0\nsamples = 2\nvalue = [0, 2]"] ;
346 -> 360 ;
361 [label="entropy = 0.0\nsamples = 2\nvalue = [2, 0]"] ;
343 -> 361 ;
362 [label="x[5] <= 0.001\nentropy = 0.722\nsamples = 9\nvalue = [3, 6]"] ;
342 -> 362 ;
363 [label="x[5] <= 0.0\nentropy = 0.811\nsamples = 5\nvalue = [0, 5]"] ;
362 -> 363 ;
364 [label="entropy = 0.0\nsamples = 1\nvalue = [0, 1]"] ;
363 -> 364 ;
365 [label="entropy = 0.0\nsamples = 4\nvalue = [0, 4]"] ;
363 -> 365 ;
366 [label="entropy = 0.0\nsamples = 4\nvalue = [3, 1]"] ;
362 -> 366 ;
367 [label="entropy = 0.0\nsamples = 4\nvalue = [0, 4]"] ;
341 -> 367 ;
368 [label="x[4] <= 0.054\nentropy = 0.619\nsamples = 19\nvalue = [2, 17]"] ;
340 -> 368 ;
369 [label="entropy = 0.0\nsamples = 15\nvalue = [0, 15]"] ;
368 -> 369 ;
370 [label="x[4] <= 0.058\nentropy = 1.0\nsamples = 4\nvalue = [2, 2]"] ;
368 -> 370 ;
371 [label="entropy = 0.0\nsamples = 2\nvalue = [2, 0]"] ;
370 -> 371 ;
372 [label="entropy = 0.0\nsamples = 2\nvalue = [0, 2]"] ;
370 -> 372 ;
373 [label="x[5] <= 0.039\nentropy = 0.286\nsamples = 20\nvalue = [1, 19]"] ;
339 -> 373 ;
374 [label="entropy = 0.0\nsamples = 17\nvalue = [0, 17]"] ;
373 -> 374 ;
375 [label="x[5] <= 0.041\nentropy = 0.918\nsamples = 3\nvalue = [1, 2]"] ;
373 -> 375 ;
376 [label="entropy = 0.0\nsamples = 1\nvalue = [1, 0]"] ;
375 -> 376 ;
377 [label="entropy = 0.0\nsamples = 2\nvalue = [0, 2]"] ;
375 -> 377 ;
378 [label="entropy = 0.0\nsamples = 1\nvalue = [1, 0]"] ;
338 -> 378 ;
379 [label="x[1] <= 0.639\nentropy = 0.977\nsamples = 93\nvalue = [41, 52]"] ;
17 -> 379 ;
380 [label="x[3] <= 0.001\nentropy = 0.96\nsamples = 81\nvalue = [31, 50]"] ;
379 -> 380 ;
381 [label="x[6] <= 0.0\nentropy = 0.918\nsamples = 59\nvalue = [19, 40]"] ;
380 -> 381 ;
382 [label="x[1] <= 0.506\nentropy = 0.958\nsamples = 49\nvalue = [19, 30]"] ;
381 -> 382 ;
383 [label="x[3] <= 0.0\nentropy = 0.982\nsamples = 44\nvalue = [19, 25]"] ;
382 -> 383 ;
384 [label="x[4] <= 0.048\nentropy = 1.0\nsamples = 35\nvalue = [18, 17]"] ;
383 -> 384 ;
385 [label="x[7] <= 0.003\nentropy = 0.994\nsamples = 33\nvalue = [18, 15]"] ;
384 -> 385 ;
386 [label="x[4] <= 0.028\nentropy = 0.997\nsamples = 31\nvalue = [17, 14]"] ;
385 -> 386 ;
387 [label="x[1] <= 0.424\nentropy = 0.997\nsamples = 29\nvalue = [15, 14]"] ;
386 -> 387 ;
388 [label="x[1] <= 0.361\nentropy = 0.996\nsamples = 27\nvalue = [15, 12]"] ;
387 -> 388 ;
389 [label="x[1] <= 0.335\nentropy = 1.0\nsamples = 23\nvalue = [11, 12]"] ;
388 -> 389 ;
390 [label="x[1] <= 0.297\nentropy = 0.998\nsamples = 20\nvalue = [11, 9]"] ;
389 -> 390 ;
391 [label="x[4] <= 0.001\nentropy = 0.985\nsamples = 13\nvalue = [5, 8]"] ;
390 -> 391 ;
392 [label="x[1] <= 0.272\nentropy = 0.918\nsamples = 6\nvalue = [4, 2]"] ;
391 -> 392 ;
393 [label="entropy = 0.0\nsamples = 3\nvalue = [3, 0]"] ;
392 -> 393 ;
394 [label="x[5] <= 0.028\nentropy = 0.918\nsamples = 3\nvalue = [1, 2]"] ;
392 -> 394 ;
395 [label="entropy = 0.0\nsamples = 1\nvalue = [0, 1]"] ;
394 -> 395 ;
396 [label="x[7] <= 0.002\nentropy = 1.0\nsamples = 2\nvalue = [1, 1]"] ;
394 -> 396 ;
397 [label="entropy = 0.0\nsamples = 1\nvalue = [0, 1]"] ;
396 -> 397 ;
398 [label="entropy = 0.0\nsamples = 1\nvalue = [1, 0]"] ;
396 -> 398 ;
399 [label="x[4] <= 0.013\nentropy = 0.592\nsamples = 7\nvalue = [1, 6]"] ;
391 -> 399 ;
400 [label="x[5] <= 0.023\nentropy = 0.65\nsamples = 5\nvalue = [0, 5]"] ;
399 -> 400 ;
401 [label="entropy = 0.0\nsamples = 1\nvalue = [0, 1]"] ;
400 -> 401 ;
402 [label="entropy = 0.0\nsamples = 4\nvalue = [0, 4]"] ;
400 -> 402 ;
403 [label="entropy = 0.0\nsamples = 2\nvalue = [1, 1]"] ;
399 -> 403 ;
404 [label="x[1] <= 0.323\nentropy = 0.65\nsamples = 7\nvalue = [6, 1]"] ;
390 -> 404 ;
405 [label="x[6] <= 0.0\nentropy = 0.65\nsamples = 5\nvalue = [5, 0]"] ;
404 -> 405 ;
406 [label="entropy = 0.0\nsamples = 4\nvalue = [4, 0]"] ;
405 -> 406 ;
407 [label="entropy = 0.0\nsamples = 1\nvalue = [1, 0]"] ;
405 -> 407 ;
408 [label="entropy = 0.0\nsamples = 2\nvalue = [1, 1]"] ;
404 -> 408 ;
409 [label="entropy = 0.0\nsamples = 3\nvalue = [0, 3]"] ;
389 -> 409 ;
410 [label="entropy = 0.0\nsamples = 4\nvalue = [4, 0]"] ;
388 -> 410 ;
411 [label="entropy = 0.0\nsamples = 2\nvalue = [0, 2]"] ;
387 -> 411 ;
412 [label="entropy = 0.0\nsamples = 2\nvalue = [2, 0]"] ;
386 -> 412 ;
413 [label="entropy = 0.0\nsamples = 2\nvalue = [1, 1]"] ;
385 -> 413 ;
414 [label="entropy = 0.0\nsamples = 2\nvalue = [0, 2]"] ;
384 -> 414 ;
415 [label="x[5] <= 0.034\nentropy = 0.544\nsamples = 9\nvalue = [1, 8]"] ;
383 -> 415 ;
416 [label="x[1] <= 0.241\nentropy = 0.544\nsamples = 7\nvalue = [0, 7]"] ;
415 -> 416 ;
417 [label="entropy = 0.0\nsamples = 1\nvalue = [0, 1]"] ;
416 -> 417 ;
418 [label="entropy = 0.0\nsamples = 6\nvalue = [0, 6]"] ;
416 -> 418 ;
419 [label="entropy = 0.0\nsamples = 2\nvalue = [1, 1]"] ;
415 -> 419 ;
420 [label="entropy = 0.0\nsamples = 5\nvalue = [0, 5]"] ;
382 -> 420 ;
421 [label="entropy = 0.0\nsamples = 10\nvalue = [0, 10]"] ;
381 -> 421 ;
422 [label="x[7] <= 0.001\nentropy = 0.998\nsamples = 22\nvalue = [12, 10]"] ;
380 -> 422 ;
423 [label="entropy = 0.0\nsamples = 4\nvalue = [4, 0]"] ;
422 -> 423 ;
424 [label="x[3] <= 0.009\nentropy = 0.991\nsamples = 18\nvalue = [8, 10]"] ;
422 -> 424 ;
425 [label="x[5] <= 0.024\nentropy = 1.0\nsamples = 15\nvalue = [8, 7]"] ;
424 -> 425 ;
426 [label="x[7] <= 0.003\nentropy = 0.65\nsamples = 6\nvalue = [5, 1]"] ;
425 -> 426 ;
427 [label="entropy = 0.65\nsamples = 5\nvalue = [4, 1]"] ;
426 -> 427 ;
428 [label="entropy = 0.0\nsamples = 1\nvalue = [1, 0]"] ;
426 -> 428 ;
429 [label="x[5] <= 0.05\nentropy = 0.918\nsamples = 9\nvalue = [3, 6]"] ;
425 -> 429 ;
430 [label="x[5] <= 0.035\nentropy = 0.811\nsamples = 7\nvalue = [1, 6]"] ;
429 -> 430 ;
431 [label="x[3] <= 0.002\nentropy = 0.918\nsamples = 3\nvalue = [1, 2]"] ;
430 -> 431 ;
432 [label="entropy = 0.0\nsamples = 1\nvalue = [1, 0]"] ;
431 -> 432 ;
433 [label="entropy = 0.0\nsamples = 2\nvalue = [0, 2]"] ;
431 -> 433 ;
434 [label="entropy = 0.0\nsamples = 4\nvalue = [0, 4]"] ;
430 -> 434 ;
435 [label="entropy = 0.0\nsamples = 2\nvalue = [2, 0]"] ;
429 -> 435 ;
436 [label="entropy = 0.0\nsamples = 3\nvalue = [0, 3]"] ;
424 -> 436 ;
437 [label="x[7] <= 0.002\nentropy = 0.65\nsamples = 12\nvalue = [10, 2]"] ;
379 -> 437 ;
438 [label="x[7] <= 0.001\nentropy = 0.684\nsamples = 8\nvalue = [8, 0]"] ;
437 -> 438 ;
439 [label="entropy = 0.0\nsamples = 2\nvalue = [2, 0]"] ;
438 -> 439 ;
440 [label="entropy = 0.0\nsamples = 6\nvalue = [6, 0]"] ;
438 -> 440 ;
441 [label="entropy = 0.0\nsamples = 4\nvalue = [2, 2]"] ;
437 -> 441 ;
442 [label="x[5] <= 0.03\nentropy = 0.986\nsamples = 156\nvalue = [89, 67]"] ;
16 -> 442 ;
443 [label="x[4] <= 0.001\nentropy = 0.944\nsamples = 116\nvalue = [74, 42]"] ;
442 -> 443 ;
444 [label="x[4] <= 0.0\nentropy = 0.706\nsamples = 52\nvalue = [42, 10]"] ;
443 -> 444 ;
445 [label="x[3] <= 0.012\nentropy = 0.831\nsamples = 38\nvalue = [28, 10]"] ;
444 -> 445 ;
446 [label="x[1] <= 0.19\nentropy = 0.544\nsamples = 16\nvalue = [14, 2]"] ;
445 -> 446 ;
447 [label="entropy = 0.0\nsamples = 3\nvalue = [1, 2]"] ;
446 -> 447 ;
448 [label="x[3] <= 0.011\nentropy = 0.619\nsamples = 13\nvalue = [13, 0]"] ;
446 -> 448 ;
449 [label="entropy = 0.0\nsamples = 1\nvalue = [1, 0]"] ;
448 -> 449 ;
450 [label="entropy = 0.0\nsamples = 12\nvalue = [12, 0]"] ;
448 -> 450 ;
451 [label="x[7] <= 0.0\nentropy = 0.946\nsamples = 22\nvalue = [14, 8]"] ;
445 -> 451 ;
452 [label="entropy = 0.845\nsamples = 11\nvalue = [7, 4]"] ;
451 -> 452 ;
453 [label="entropy = 0.0\nsamples = 11\nvalue = [7, 4]"] ;
451 -> 453 ;
454 [label="entropy = 0.0\nsamples = 14\nvalue = [14, 0]"] ;
444 -> 454 ;
455 [label="x[4] <= 0.028\nentropy = 1.0\nsamples = 64\nvalue = [32, 32]"] ;
443 -> 455 ;
456 [label="x[3] <= 0.024\nentropy = 1.0\nsamples = 55\nvalue = [28, 27]"] ;
455 -> 456 ;
457 [label="x[5] <= 0.022\nentropy = 0.998\nsamples = 53\nvalue = [28, 25]"] ;
456 -> 457 ;
458 [label="x[5] <= 0.012\nentropy = 1.0\nsamples = 49\nvalue = [24, 25]"] ;
457 -> 458 ;
459 [label="x[3] <= 0.018\nentropy = 0.977\nsamples = 38\nvalue = [23, 15]"] ;
458 -> 459 ;
460 [label="x[4] <= 0.009\nentropy = 0.999\nsamples = 25\nvalue = [12, 13]"] ;
459 -> 460 ;
461 [label="entropy = 0.0\nsamples = 3\nvalue = [3, 0]"] ;
460 -> 461 ;
462 [label="x[5] <= 0.0\nentropy = 0.976\nsamples = 22\nvalue = [9, 13]"] ;
460 -> 462 ;
463 [label="x[7] <= 0.0\nentropy = 0.982\nsamples = 15\nvalue = [6, 9]"] ;
462 -> 463 ;
464 [label="x[1] <= 0.38\nentropy = 0.994\nsamples = 8\nvalue = [4, 4]"] ;
463 -> 464 ;
465 [label="x[3] <= 0.014\nentropy = 0.918\nsamples = 5\nvalue = [3, 2]"] ;
464 -> 465 ;
466 [label="x[3] <= 0.011\nentropy = 1.0\nsamples = 3\nvalue = [1, 2]"] ;
465 -> 466 ;
467 [label="entropy = 0.0\nsamples = 1\nvalue = [1, 0]"] ;
466 -> 467 ;
468 [label="entropy = 0.0\nsamples = 2\nvalue = [0, 2]"] ;
466 -> 468 ;
469 [label="entropy = 0.0\nsamples = 2\nvalue = [2, 0]"] ;
465 -> 469 ;
470 [label="entropy = 0.0\nsamples = 3\nvalue = [1, 2]"] ;
464 -> 470 ;
471 [label="x[3] <= 0.014\nentropy = 0.811\nsamples = 7\nvalue = [2, 5]"] ;
463 -> 471 ;
472 [label="x[3] <= 0.012\nentropy = 0.918\nsamples = 3\nvalue = [2, 1]"] ;
471 -> 472 ;
473 [label="entropy = -2.0\nsamples = 1\nvalue = [0, 1]"] ;
472 -> 473 ;
474 [label="entropy = 0.0\nsamples = 2\nvalue = [2, 0]"] ;
472 -> 474 ;
475 [label="entropy = 0.0\nsamples = 4\nvalue = [0, 4]"] ;
471 -> 475 ;
476 [label="x[5] <= 0.001\nentropy = 0.918\nsamples = 7\nvalue = [3, 4]"] ;
462 -> 476 ;
477 [label="entropy = 0.0\nsamples = 3\nvalue = [0, 3]"] ;
476 -> 477 ;
478 [label="x[1] <= 0.31\nentropy = 0.811\nsamples = 4\nvalue = [3, 1]"] ;
476 -> 478 ;
479 [label="entropy = 0.0\nsamples = 2\nvalue = [2, 0]"] ;
478 -> 479 ;
480 [label="x[4] <= 0.015\nentropy = 1.0\nsamples = 2\nvalue = [1, 1]"] ;
478 -> 480 ;
481 [label="entropy = 0.0\nsamples = 1\nvalue = [0, 1]"] ;
480 -> 481 ;
482 [label="entropy = 0.0\nsamples = 1\nvalue = [1, 0]"] ;
480 -> 482 ;
483 [label="x[3] <= 0.023\nentropy = 0.619\nsamples = 13\nvalue = [11, 2]"] ;
459 -> 483 ;
484 [label="x[6] <= 0.0\nentropy = 0.65\nsamples = 11\nvalue = [10, 1]"] ;
483 -> 484 ;
485 [label="entropy = 0.0\nsamples = 9\nvalue = [9, 0]"] ;
484 -> 485 ;
486 [label="entropy = 0.0\nsamples = 2\nvalue = [1, 1]"] ;
484 -> 486 ;
487 [label="entropy = 0.0\nsamples = 2\nvalue = [1, 1]"] ;
483 -> 487 ;
488 [label="x[3] <= 0.016\nentropy = 0.469\nsamples = 11\nvalue = [1, 10]"] ;
458 -> 488 ;
489 [label="x[3] <= 0.014\nentropy = 0.811\nsamples = 4\nvalue = [1, 3]"] ;
488 -> 489 ;
490 [label="x[4] <= 0.018\nentropy = 1.0\nsamples = 2\nvalue = [0, 2]"] ;
489 -> 490 ;
491 [label="entropy = 0.0\nsamples = 1\nvalue = [0, 1]"] ;
490 -> 491 ;
492 [label="entropy = 0.0\nsamples = 1\nvalue = [0, 1]"] ;
490 -> 492 ;
493 [label="entropy = 0.0\nsamples = 2\nvalue = [1, 1]"] ;
489 -> 493 ;
494 [label="entropy = 0.0\nsamples = 7\nvalue = [0, 7]"] ;
488 -> 494 ;
495 [label="entropy = 0.0\nsamples = 4\nvalue = [4, 0]"] ;
457 -> 495 ;
496 [label="entropy = 0.0\nsamples = 2\nvalue = [0, 2]"] ;
456 -> 496 ;
497 [label="entropy = 0.0\nsamples = 9\nvalue = [4, 5]"] ;
455 -> 497 ;
498 [label="x[7] <= 0.0\nentropy = 0.954\nsamples = 40\nvalue = [15, 25]"] ;
442 -> 498 ;
499 [label="x[2] <= 0.5\nentropy = 0.954\nsamples = 31\nvalue = [9, 22]"] ;
498 -> 499 ;
500 [label="x[4] <= inf\nentropy = 0.706\nsamples = 26\nvalue = [5, 21]"] ;
499 -> 500 ;
501 [label="x[1] <= 0.589\nentropy = 0.544\nsamples = 24\nvalue = [3, 21]"] ;
500 -> 501 ;
502 [label="x[3] <= 0.011\nentropy = 0.544\nsamples = 22\nvalue = [3, 19]"] ;
501 -> 502 ;
503 [label="entropy = 0.918\nsamples = 3\nvalue = [2, 1]"] ;
502 -> 503 ;
504 [label="x[3] <= 0.017\nentropy = 0.297\nsamples = 19\nvalue = [1, 18]"] ;
502 -> 504 ;
505 [label="entropy = 0.0\nsamples = 14\nvalue = [0, 14]"] ;
504 -> 505 ;
506 [label="x[3] <= 0.018\nentropy = 0.722\nsamples = 5\nvalue = [1, 4]"] ;
504 -> 506 ;
507 [label="entropy = 0.0\nsamples = 1\nvalue = [1, 0]"] ;
506 -> 507 ;
508 [label="entropy = 0.0\nsamples = 4\nvalue = [0, 4]"] ;
506 -> 508 ;
509 [label="entropy = 0.0\nsamples = 2\nvalue = [0, 2]"] ;
501 -> 509 ;
510 [label="entropy = 0.0\nsamples = 2\nvalue = [2, 0]"] ;
500 -> 510 ;
511 [label="x[3] <= 0.022\nentropy = 0.722\nsamples = 5\nvalue = [4, 1]"] ;
499 -> 511 ;
512 [label="entropy = 0.0\nsamples = 1\nvalue = [0, 1]"] ;
511 -> 512 ;
513 [label="entropy = 0.0\nsamples = 4\nvalue = [4, 0]"] ;
511 -> 513 ;
514 [label="entropy = 0.0\nsamples = 9\nvalue = [6, 3]"] ;
498 -> 514 ;
515 [label="x[5] <= 0.055\nentropy = 0.961\nsamples = 229\nvalue = [141, 88]"] ;
15 -> 515 ;
516 [label="x[3] <= 0.017\nentropy = 0.948\nsamples = 221\nvalue = [140, 81]"] ;
515 -> 516 ;
517 [label="x[4] <= 0.025\nentropy = 0.968\nsamples = 200\nvalue = [121, 79]"] ;
516 -> 517 ;
518 [label="x[4] <= 0.024\nentropy = 0.938\nsamples = 158\nvalue = [102, 56]"] ;
517 -> 518 ;
519 [label="x[6] <= 0.01\nentropy = 0.94\nsamples = 152\nvalue = [96, 56]"] ;
518 -> 519 ;
520 [label="x[5] <= 0.018\nentropy = 0.967\nsamples = 137\nvalue = [83, 54]"] ;
519 -> 520 ;
521 [label="x[4] <= 0.015\nentropy = 0.925\nsamples = 69\nvalue = [47, 22]"] ;
520 -> 521 ;
522 [label="x[6] <= 0.005\nentropy = 0.977\nsamples = 34\nvalue = [28, 6]"] ;
521 -> 522 ;
523 [label="entropy = 0.0\nsamples = 6\nvalue = [6, 0]"] ;
522 -> 523 ;
524 [label="x[6] <= 0.006\nentropy = 0.75\nsamples = 28\nvalue = [22, 6]"] ;
522 -> 524 ;
525 [label="entropy = 0.0\nsamples = 1\nvalue = [0, 1]"] ;
524 -> 525 ;
526 [label="x[6] <= 0.009\nentropy = 0.691\nsamples = 27\nvalue = [22, 5]"] ;
524 -> 526 ;
527 [label="entropy = 0.0\nsamples = 6\nvalue = [6, 0]"] ;
526 -> 527 ;
528 [label="x[1] <= 0.184\nentropy = 0.792\nsamples = 21\nvalue = [16, 5]"] ;
526 -> 528 ;
529 [label="entropy = 1.0\nsamples = 2\nvalue = [2, 0]"] ;
528 -> 529 ;
530 [label="entropy = 0.742\nsamples = 19\nvalue = [14, 5]"] ;
528 -> 530 ;
531 [label="entropy = 0.776\nsamples = 35\nvalue = [19, 16]"] ;
521 -> 531 ;
532 [label="x[5] <= 0.02\nentropy = 0.998\nsamples = 68\nvalue = [36, 32]"] ;
520 -> 532 ;
533 [label="x[6] <= 0.008\nentropy = 0.544\nsamples = 8\nvalue = [1, 7]"] ;
532 -> 533 ;
534 [label="entropy = 0.0\nsamples = 6\nvalue = [0, 6]"] ;
533 -> 534 ;
535 [label="entropy = 1.0\nsamples = 2\nvalue = [1, 1]"] ;
533 -> 535 ;
536 [label="x[5] <= 0.025\nentropy = 0.98\nsamples = 60\nvalue = [35, 25]"] ;
532 -> 536 ;
537 [label="x[6] <= 0.007\nentropy = 0.469\nsamples = 10\nvalue = [9, 1]"] ;
536 -> 537 ;
538 [label="x[3] <= 0.0\nentropy = 0.469\nsamples = 6\nvalue = [6, 0]"] ;
537 -> 538 ;
539 [label="entropy = -2.0\nsamples = 3\nvalue = [3, 0]"] ;
538 -> 539 ;
540 [label="entropy = 1.0\nsamples = 3\nvalue = [3, 0]"] ;
538 -> 540 ;
541 [label="entropy = 0.0\nsamples = 4\nvalue = [3, 1]"] ;
537 -> 541 ;
542 [label="x[6] <= 0.002\nentropy = 0.999\nsamples = 50\nvalue = [26, 24]"] ;
536 -> 542 ;
543 [label="x[7] <= 0.0\nentropy = 0.722\nsamples = 10\nvalue = [8, 2]"] ;
542 -> 543 ;
544 [label="x[7] <= 0.0\nentropy = 0.722\nsamples = 6\nvalue = [5, 1]"] ;
543 -> 544 ;
545 [label="entropy = 0.65\nsamples = 4\nvalue = [3, 1]"] ;
544 -> 545 ;
546 [label="entropy = 0.0\nsamples = 2\nvalue = [2, 0]"] ;
544 -> 546 ;
547 [label="entropy = 0.0\nsamples = 4\nvalue = [3, 1]"] ;
543 -> 547 ;
548 [label="x[6] <= 0.002\nentropy = 0.993\nsamples = 40\nvalue = [18, 22]"] ;
542 -> 548 ;
549 [label="entropy = 0.0\nsamples = 3\nvalue = [0, 3]"] ;
548 -> 549 ;
550 [label="x[5] <= 0.025\nentropy = 0.999\nsamples = 37\nvalue = [18, 19]"] ;
548 -> 550 ;
551 [label="entropy = 0.0\nsamples = 2\nvalue = [0, 2]"] ;
550 -> 551 ;
552 [label="x[3] <= 0.012\nentropy = 0.999\nsamples = 35\nvalue = [18, 17]"] ;
550 -> 552 ;
553 [label="x[5] <= 0.026\nentropy = 0.999\nsamples = 32\nvalue = [18, 14]"] ;
552 -> 553 ;
554 [label="entropy = 0.0\nsamples = 2\nvalue = [2, 0]"] ;
553 -> 554 ;
555 [label="x[5] <= 0.028\nentropy = 0.997\nsamples = 30\nvalue = [16, 14]"] ;
553 -> 555 ;
556 [label="entropy = 0.0\nsamples = 2\nvalue = [0, 2]"] ;
555 -> 556 ;
557 [label="x[1] <= 0.297\nentropy = 0.985\nsamples = 28\nvalue = [16, 12]"] ;
555 -> 557 ;
558 [label="x[5] <= 0.036\nentropy = 0.946\nsamples = 11\nvalue = [4, 7]"] ;
557 -> 558 ;
559 [label="entropy = 0.0\nsamples = 4\nvalue = [0, 4]"] ;
558 -> 559 ;
560 [label="x[6] <= 0.008\nentropy = 0.985\nsamples = 7\nvalue = [4, 3]"] ;
558 -> 560 ;
561 [label="entropy = 0.0\nsamples = 3\nvalue = [3, 0]"] ;
560 -> 561 ;
562 [label="x[6] <= 0.01\nentropy = 0.811\nsamples = 4\nvalue = [1, 3]"] ;
560 -> 562 ;
563 [label="x[6] <= 0.009\nentropy = 1.0\nsamples = 2\nvalue = [1, 1]"] ;
562 -> 563 ;
564 [label="entropy = 0.0\nsamples = 1\nvalue = [0, 1]"] ;
563 -> 564 ;
565 [label="entropy = 0.0\nsamples = 1\nvalue = [1, 0]"] ;
563 -> 565 ;
566 [label="entropy = 0.0\nsamples = 2\nvalue = [0, 2]"] ;
562 -> 566 ;
567 [label="x[6] <= 0.006\nentropy = 0.874\nsamples = 17\nvalue = [12, 5]"] ;
557 -> 567 ;
568 [label="x[4] <= 0.0\nentropy = 0.98\nsamples = 12\nvalue = [7, 5]"] ;
567 -> 568 ;
569 [label="x[6] <= 0.003\nentropy = 1.0\nsamples = 9\nvalue = [4, 5]"] ;
568 -> 569 ;
570 [label="x[1] <= 0.443\nentropy = 0.985\nsamples = 6\nvalue = [4, 2]"] ;
569 -> 570 ;
571 [label="entropy = 0.0\nsamples = 3\nvalue = [3, 0]"] ;
570 -> 571 ;
572 [label="x[5] <= 0.041\nentropy = 0.918\nsamples = 3\nvalue = [1, 2]"] ;
570 -> 572 ;
573 [label="x[6] <= 0.003\nentropy = 0.918\nsamples = 2\nvalue = [1, 1]"] ;
572 -> 573 ;
574 [label="entropy = 0.0\nsamples = 1\nvalue = [0, 1]"] ;
573 -> 574 ;
575 [label="entropy = 0.0\nsamples = 1\nvalue = [1, 0]"] ;
573 -> 575 ;
576 [label="entropy = 0.0\nsamples = 1\nvalue = [0, 1]"] ;
572 -> 576 ;
577 [label="entropy = 0.0\nsamples = 3\nvalue = [0, 3]"] ;
569 -> 577 ;
578 [label="entropy = 0.0\nsamples = 3\nvalue = [3, 0]"] ;
568 -> 578 ;
579 [label="entropy = 0.0\nsamples = 5\nvalue = [5, 0]"] ;
567 -> 579 ;
580 [label="entropy = 0.0\nsamples = 3\nvalue = [0, 3]"] ;
552 -> 580 ;
581 [label="x[4] <= 0.013\nentropy = 0.567\nsamples = 15\nvalue = [13, 2]"] ;
519 -> 581 ;
582 [label="entropy = 0.0\nsamples = 10\nvalue = [10, 0]"] ;
581 -> 582 ;
583 [label="x[6] <= 0.011\nentropy = 1.0\nsamples = 5\nvalue = [3, 2]"] ;
581 -> 583 ;
584 [label="entropy = 0.0\nsamples = 2\nvalue = [2, 0]"] ;
583 -> 584 ;
585 [label="x[5] <= 0.001\nentropy = 0.918\nsamples = 3\nvalue = [1, 2]"] ;
583 -> 585 ;
586 [label="entropy = 0.0\nsamples = 1\nvalue = [1, 0]"] ;
585 -> 586 ;
587 [label="entropy = 0.0\nsamples = 2\nvalue = [0, 2]"] ;
585 -> 587 ;
588 [label="entropy = 0.0\nsamples = 6\nvalue = [6, 0]"] ;
518 -> 588 ;
589 [label="x[4] <= 0.053\nentropy = 0.993\nsamples = 42\nvalue = [19, 23]"] ;
517 -> 589 ;
590 [label="x[6] <= 0.007\nentropy = 0.968\nsamples = 38\nvalue = [15, 23]"] ;
589 -> 590 ;
591 [label="x[3] <= 0.001\nentropy = 1.0\nsamples = 28\nvalue = [14, 14]"] ;
590 -> 591 ;
592 [label="x[6] <= 0.002\nentropy = 1.0\nsamples = 25\nvalue = [13, 12]"] ;
591 -> 592 ;
593 [label="entropy = 0.0\nsamples = 1\nvalue = [0, 1]"] ;
592 -> 593 ;
594 [label="x[6] <= 0.003\nentropy = 0.995\nsamples = 24\nvalue = [13, 11]"] ;
592 -> 594 ;
595 [label="x[5] <= 0.0\nentropy = 0.881\nsamples = 10\nvalue = [7, 3]"] ;
594 -> 595 ;
596 [label="x[7] <= 0.001\nentropy = 0.971\nsamples = 5\nvalue = [2, 3]"] ;
595 -> 596 ;
597 [label="x[6] <= 0.002\nentropy = 0.971\nsamples = 4\nvalue = [1, 3]"] ;
596 -> 597 ;
598 [label="entropy = -0.877\nsamples = 2\nvalue = [0, 2]"] ;
597 -> 598 ;
599 [label="entropy = 0.0\nsamples = 2\nvalue = [1, 1]"] ;
597 -> 599 ;
600 [label="entropy = 0.0\nsamples = 1\nvalue = [1, 0]"] ;
596 -> 600 ;
601 [label="entropy = 0.0\nsamples = 5\nvalue = [5, 0]"] ;
595 -> 601 ;
602 [label="x[7] <= 0.0\nentropy = 0.985\nsamples = 14\nvalue = [6, 8]"] ;
594 -> 602 ;
603 [label="x[4] <= 0.04\nentropy = 0.985\nsamples = 11\nvalue = [5, 6]"] ;
602 -> 603 ;
604 [label="x[6] <= 0.004\nentropy = 0.918\nsamples = 9\nvalue = [3, 6]"] ;
603 -> 604 ;
605 [label="x[4] <= inf\nentropy = 0.918\nsamples = 3\nvalue = [2, 1]"] ;
604 -> 605 ;
606 [label="entropy = 0.0\nsamples = 2\nvalue = [2, 0]"] ;
605 -> 606 ;
607 [label="entropy = 0.0\nsamples = 1\nvalue = [0, 1]"] ;
605 -> 607 ;
608 [label="x[1] <= 0.285\nentropy = 0.65\nsamples = 6\nvalue = [1, 5]"] ;
604 -> 608 ;
609 [label="entropy = 0.0\nsamples = 2\nvalue = [1, 1]"] ;
608 -> 609 ;
610 [label="x[4] <= 0.029\nentropy = 0.811\nsamples = 4\nvalue = [0, 4]"] ;
608 -> 610 ;
611 [label="entropy = 0.0\nsamples = 1\nvalue = [0, 1]"] ;
610 -> 611 ;
612 [label="entropy = 0.0\nsamples = 3\nvalue = [0, 3]"] ;
610 -> 612 ;
613 [label="entropy = 0.0\nsamples = 2\nvalue = [2, 0]"] ;
603 -> 613 ;
614 [label="entropy = 0.0\nsamples = 3\nvalue = [1, 2]"] ;
602 -> 614 ;
615 [label="entropy = 0.0\nsamples = 3\nvalue = [1, 2]"] ;
591 -> 615 ;
616 [label="x[1] <= 0.222\nentropy = 0.469\nsamples = 10\nvalue = [1, 9]"] ;
590 -> 616 ;
617 [label="entropy = 1.0\nsamples = 2\nvalue = [1, 1]"] ;
616 -> 617 ;
618 [label="entropy = 0.0\nsamples = 8\nvalue = [0, 8]"] ;
616 -> 618 ;
619 [label="entropy = 0.0\nsamples = 4\nvalue = [4, 0]"] ;
589 -> 619 ;
620 [label="x[6] <= 0.007\nentropy = 0.454\nsamples = 21\nvalue = [19, 2]"] ;
516 -> 620 ;
621 [label="entropy = 0.0\nsamples = 17\nvalue = [17, 0]"] ;
620 -> 621 ;
622 [label="x[4] <= 0.002\nentropy = 1.0\nsamples = 4\nvalue = [2, 2]"] ;
620 -> 622 ;
623 [label="x[1] <= 0.342\nentropy = 1.0\nsamples = 3\nvalue = [2, 1]"] ;
622 -> 623 ;
624 [label="entropy = 0.0\nsamples = 2\nvalue = [2, 0]"] ;
623 -> 624 ;
625 [label="entropy = 0.0\nsamples = 1\nvalue = [0, 1]"] ;
623 -> 625 ;
626 [label="entropy = 0.0\nsamples = 1\nvalue = [0, 1]"] ;
622 -> 626 ;
627 [label="x[7] <= 0.001\nentropy = 0.544\nsamples = 8\nvalue = [1, 7]"] ;
515 -> 627 ;
628 [label="x[5] <= 0.062\nentropy = 0.544\nsamples = 7\nvalue = [1, 6]"] ;
627 -> 628 ;
629 [label="entropy = 0.0\nsamples = 5\nvalue = [0, 5]"] ;
628 -> 629 ;
630 [label="x[5] <= 0.064\nentropy = 1.0\nsamples = 2\nvalue = [1, 1]"] ;
628 -> 630 ;
631 [label="entropy = 0.0\nsamples = 1\nvalue = [1, 0]"] ;
630 -> 631 ;
632 [label="entropy = 0.0\nsamples = 1\nvalue = [0, 1]"] ;
630 -> 632 ;
633 [label="entropy = 0.0\nsamples = 1\nvalue = [0, 1]"] ;
627 -> 633 ;
634 [label="x[4] <= 0.046\nentropy = 0.925\nsamples = 235\nvalue = [155, 80]"] ;
14 -> 634 ;
635 [label="x[5] <= 0.021\nentropy = 0.908\nsamples = 226\nvalue = [153, 73]"] ;
634 -> 635 ;
636 [label="x[4] <= 0.029\nentropy = 0.839\nsamples = 164\nvalue = [120, 44]"] ;
635 -> 636 ;
637 [label="x[1] <= 0.133\nentropy = 0.866\nsamples = 153\nvalue = [109, 44]"] ;
636 -> 637 ;
638 [label="x[1] <= 0.095\nentropy = 0.863\nsamples = 7\nvalue = [2, 5]"] ;
637 -> 638 ;
639 [label="entropy = 0.918\nsamples = 4\nvalue = [1, 3]"] ;
638 -> 639 ;
640 [label="entropy = 0.0\nsamples = 3\nvalue = [1, 2]"] ;
638 -> 640 ;
641 [label="x[6] <= 0.011\nentropy = 0.837\nsamples = 146\nvalue = [107, 39]"] ;
637 -> 641 ;
642 [label="x[3] <= 0.023\nentropy = 0.805\nsamples = 138\nvalue = [104, 34]"] ;
641 -> 642 ;
643 [label="x[6] <= 0.008\nentropy = 0.826\nsamples = 131\nvalue = [97, 34]"] ;
642 -> 643 ;
644 [label="entropy = 0.826\nsamples = 121\nvalue = [87, 34]"] ;
643 -> 644 ;
645 [label="entropy = 0.0\nsamples = 10\nvalue = [10, 0]"] ;
643 -> 645 ;
646 [label="entropy = 0.0\nsamples = 7\nvalue = [7, 0]"] ;
642 -> 646 ;
647 [label="x[5] <= 0.0\nentropy = 0.954\nsamples = 8\nvalue = [3, 5]"] ;
641 -> 647 ;
648 [label="entropy = -0.553\nsamples = 3\nvalue = [1, 2]"] ;
647 -> 648 ;
649 [label="entropy = 0.722\nsamples = 5\nvalue = [2, 3]"] ;
647 -> 649 ;
650 [label="entropy = 0.0\nsamples = 11\nvalue = [11, 0]"] ;
636 -> 650 ;
651 [label="x[7] <= 0.011\nentropy = 0.997\nsamples = 62\nvalue = [33, 29]"] ;
635 -> 651 ;
652 [label="x[4] <= 0.001\nentropy = 1.0\nsamples = 58\nvalue = [29, 29]"] ;
651 -> 652 ;
653 [label="x[2] <= 0.5\nentropy = 0.984\nsamples = 47\nvalue = [27, 20]"] ;
652 -> 653 ;
654 [label="x[1] <= 0.797\nentropy = 0.971\nsamples = 45\nvalue = [27, 18]"] ;
653 -> 654 ;
655 [label="x[7] <= 0.004\nentropy = 0.971\nsamples = 43\nvalue = [26, 17]"] ;
654 -> 655 ;
656 [label="entropy = 0.863\nsamples = 7\nvalue = [2, 5]"] ;
655 -> 656 ;
657 [label="x[7] <= 0.005\nentropy = 0.918\nsamples = 36\nvalue = [24, 12]"] ;
655 -> 657 ;
658 [label="entropy = 0.0\nsamples = 6\nvalue = [6, 0]"] ;
657 -> 658 ;
659 [label="x[7] <= 0.009\nentropy = 0.971\nsamples = 30\nvalue = [18, 12]"] ;
657 -> 659 ;
660 [label="x[7] <= 0.008\nentropy = 0.991\nsamples = 27\nvalue = [15, 12]"] ;
659 -> 660 ;
661 [label="x[7] <= 0.005\nentropy = 0.932\nsamples = 23\nvalue = [15, 8]"] ;
660 -> 661 ;
662 [label="entropy = 0.0\nsamples = 1\nvalue = [0, 1]"] ;
661 -> 662 ;
663 [label="x[1] <= 0.222\nentropy = 0.902\nsamples = 22\nvalue = [15, 7]"] ;
661 -> 663 ;
664 [label="entropy = 0.0\nsamples = 2\nvalue = [2, 0]"] ;
663 -> 664 ;
665 [label="x[1] <= 0.424\nentropy = 0.934\nsamples = 20\nvalue = [13, 7]"] ;
663 -> 665 ;
666 [label="x[7] <= 0.007\nentropy = 0.9\nsamples = 11\nvalue = [6, 5]"] ;
665 -> 666 ;
667 [label="entropy = 0.0\nsamples = 3\nvalue = [3, 0]"] ;
666 -> 667 ;
668 [label="x[5] <= 0.03\nentropy = 0.954\nsamples = 8\nvalue = [3, 5]"] ;
666 -> 668 ;
669 [label="entropy = 0.0\nsamples = 2\nvalue = [0, 2]"] ;
668 -> 669 ;
670 [label="x[3] <= 0.0\nentropy = 1.0\nsamples = 6\nvalue = [3, 3]"] ;
668 -> 670 ;
671 [label="entropy = 0.0\nsamples = 3\nvalue = [1, 2]"] ;
670 -> 671 ;
672 [label="entropy = 1.0\nsamples = 3\nvalue = [2, 1]"] ;
670 -> 672 ;
673 [label="entropy = 0.0\nsamples = 9\nvalue = [7, 2]"] ;
665 -> 673 ;
674 [label="entropy = 0.0\nsamples = 4\nvalue = [0, 4]"] ;
660 -> 674 ;
675 [label="entropy = 0.0\nsamples = 3\nvalue = [3, 0]"] ;
659 -> 675 ;
676 [label="entropy = 0.0\nsamples = 2\nvalue = [1, 1]"] ;
654 -> 676 ;
677 [label="entropy = 0.0\nsamples = 2\nvalue = [0, 2]"] ;
653 -> 677 ;
678 [label="x[4] <= 0.009\nentropy = 0.684\nsamples = 11\nvalue = [2, 9]"] ;
652 -> 678 ;
679 [label="entropy = 0.0\nsamples = 8\nvalue = [0, 8]"] ;
678 -> 679 ;
680 [label="x[6] <= 0.001\nentropy = 0.918\nsamples = 3\nvalue = [2, 1]"] ;
678 -> 680 ;
681 [label="x[1] <= 0.316\nentropy = 0.918\nsamples = 2\nvalue = [2, 0]"] ;
680 -> 681 ;
682 [label="entropy = -2.0\nsamples = 1\nvalue = [1, 0]"] ;
681 -> 682 ;
683 [label="entropy = 0.0\nsamples = 1\nvalue = [1, 0]"] ;
681 -> 683 ;
684 [label="entropy = 0.0\nsamples = 1\nvalue = [0, 1]"] ;
680 -> 684 ;
685 [label="entropy = 0.0\nsamples = 4\nvalue = [4, 0]"] ;
651 -> 685 ;
686 [label="x[3] <= 0.0\nentropy = 0.764\nsamples = 9\nvalue = [2, 7]"] ;
634 -> 686 ;
687 [label="entropy = 0.0\nsamples = 6\nvalue = [0, 6]"] ;
686 -> 687 ;
688 [label="x[3] <= 0.002\nentropy = 0.918\nsamples = 3\nvalue = [2, 1]"] ;
686 -> 688 ;
689 [label="x[1] <= 0.608\nentropy = 1.0\nsamples = 2\nvalue = [1, 1]"] ;
688 -> 689 ;
690 [label="entropy = 0.0\nsamples = 1\nvalue = [1, 0]"] ;
689 -> 690 ;
691 [label="entropy = 0.0\nsamples = 1\nvalue = [0, 1]"] ;
689 -> 691 ;
692 [label="entropy = 0.0\nsamples = 1\nvalue = [1, 0]"] ;
688 -> 692 ;
693 [label="x[6] <= 0.001\nentropy = 0.374\nsamples = 97\nvalue = [7, 90]"] ;
5 -> 693 ;
694 [label="x[7] <= 0.002\nentropy = 0.109\nsamples = 69\nvalue = [1, 68]"] ;
693 -> 694 ;
695 [label="entropy = 0.0\nsamples = 66\nvalue = [0, 66]"] ;
694 -> 695 ;
696 [label="entropy = 0.918\nsamples = 3\nvalue = [1, 2]"] ;
694 -> 696 ;
697 [label="x[7] <= 0.0\nentropy = 0.75\nsamples = 28\nvalue = [6, 22]"] ;
693 -> 697 ;
698 [label="x[6] <= 0.001\nentropy = 0.764\nsamples = 15\nvalue = [4, 11]"] ;
697 -> 698 ;
699 [label="entropy = 0.0\nsamples = 2\nvalue = [2, 0]"] ;
698 -> 699 ;
700 [label="x[5] <= 0.078\nentropy = 0.619\nsamples = 13\nvalue = [2, 11]"] ;
698 -> 700 ;
701 [label="x[6] <= 0.002\nentropy = 1.0\nsamples = 4\nvalue = [2, 2]"] ;
700 -> 701 ;
702 [label="entropy = 0.0\nsamples = 1\nvalue = [1, 0]"] ;
701 -> 702 ;
703 [label="x[5] <= 0.076\nentropy = 0.918\nsamples = 3\nvalue = [1, 2]"] ;
701 -> 703 ;
704 [label="x[1] <= 0.456\nentropy = 0.918\nsamples = 2\nvalue = [0, 2]"] ;
703 -> 704 ;
705 [label="entropy = -2.0\nsamples = 1\nvalue = [0, 1]"] ;
704 -> 705 ;
706 [label="entropy = 0.0\nsamples = 1\nvalue = [0, 1]"] ;
704 -> 706 ;
707 [label="entropy = 0.0\nsamples = 1\nvalue = [1, 0]"] ;
703 -> 707 ;
708 [label="entropy = 0.0\nsamples = 9\nvalue = [0, 9]"] ;
700 -> 708 ;
709 [label="x[7] <= 0.007\nentropy = 0.722\nsamples = 13\nvalue = [2, 11]"] ;
697 -> 709 ;
710 [label="x[1] <= 0.234\nentropy = 0.65\nsamples = 10\nvalue = [0, 10]"] ;
709 -> 710 ;
711 [label="entropy = 0.0\nsamples = 1\nvalue = [0, 1]"] ;
710 -> 711 ;
712 [label="entropy = 0.0\nsamples = 9\nvalue = [0, 9]"] ;
710 -> 712 ;
713 [label="entropy = 0.0\nsamples = 3\nvalue = [2, 1]"] ;
709 -> 713 ;
714 [label="x[1] <= 0.222\nentropy = 0.168\nsamples = 161\nvalue = [4, 157]"] ;
4 -> 714 ;
715 [label="x[3] <= 0.0\nentropy = 0.918\nsamples = 6\nvalue = [2, 4]"] ;
714 -> 715 ;
716 [label="x[1] <= 0.184\nentropy = 0.918\nsamples = 3\nvalue = [1, 2]"] ;
715 -> 716 ;
717 [label="entropy = 0.0\nsamples = 1\nvalue = [1, 0]"] ;
716 -> 717 ;
718 [label="entropy = 0.0\nsamples = 2\nvalue = [0, 2]"] ;
716 -> 718 ;
719 [label="entropy = 0.0\nsamples = 3\nvalue = [1, 2]"] ;
715 -> 719 ;
720 [label="x[7] <= 0.01\nentropy = 0.099\nsamples = 155\nvalue = [2, 153]"] ;
714 -> 720 ;
721 [label="entropy = 0.0\nsamples = 134\nvalue = [0, 134]"] ;
720 -> 721 ;
722 [label="x[4] <= 0.093\nentropy = 0.454\nsamples = 21\nvalue = [2, 19]"] ;
720 -> 722 ;
723 [label="x[6] <= 0.0\nentropy = 1.0\nsamples = 4\nvalue = [2, 2]"] ;
722 -> 723 ;
724 [label="entropy = -2.0\nsamples = 1\nvalue = [0, 1]"] ;
723 -> 724 ;
725 [label="entropy = 0.0\nsamples = 3\nvalue = [2, 1]"] ;
723 -> 725 ;
726 [label="entropy = 0.0\nsamples = 17\nvalue = [0, 17]"] ;
722 -> 726 ;
727 [label="x[4] <= 0.096\nentropy = 0.744\nsamples = 852\nvalue = [672, 180]"] ;
3 -> 727 ;
728 [label="x[7] <= 0.07\nentropy = 0.617\nsamples = 766\nvalue = [649, 117]"] ;
727 -> 728 ;
729 [label="x[4] <= 0.005\nentropy = 0.685\nsamples = 600\nvalue = [490, 110]"] ;
728 -> 729 ;
730 [label="x[6] <= 0.01\nentropy = 0.596\nsamples = 436\nvalue = [373, 63]"] ;
729 -> 730 ;
731 [label="x[6] <= 0.007\nentropy = 0.575\nsamples = 425\nvalue = [367, 58]"] ;
730 -> 731 ;
732 [label="x[6] <= 0.0\nentropy = 0.573\nsamples = 407\nvalue = [353, 54]"] ;
731 -> 732 ;
733 [label="x[2] <= inf\nentropy = 0.633\nsamples = 296\nvalue = [248, 48]"] ;
732 -> 733 ;
734 [label="x[6] <= 0.0\nentropy = 0.62\nsamples = 292\nvalue = [247, 45]"] ;
733 -> 734 ;
735 [label="x[4] <= 0.004\nentropy = 0.619\nsamples = 279\nvalue = [236, 43]"] ;
734 -> 735 ;
736 [label="x[6] <= 0.0\nentropy = 0.624\nsamples = 268\nvalue = [226, 42]"] ;
735 -> 736 ;
737 [label="x[1] <= 0.671\nentropy = 0.658\nsamples = 228\nvalue = [191, 37]"] ;
736 -> 737 ;
738 [label="x[7] <= 0.022\nentropy = 0.612\nsamples = 219\nvalue = [186, 33]"] ;
737 -> 738 ;
739 [label="x[4] <= 0.0\nentropy = 0.877\nsamples = 27\nvalue = [19, 8]"] ;
738 -> 739 ;
740 [label="x[7] <= 0.016\nentropy = 0.937\nsamples = 16\nvalue = [10, 6]"] ;
739 -> 740 ;
741 [label="entropy = 0.0\nsamples = 3\nvalue = [3, 0]"] ;
740 -> 741 ;
742 [label="x[7] <= 0.017\nentropy = 0.996\nsamples = 13\nvalue = [7, 6]"] ;
740 -> 742 ;
743 [label="entropy = 0.0\nsamples = 3\nvalue = [0, 3]"] ;
742 -> 743 ;
744 [label="x[7] <= 0.019\nentropy = 0.881\nsamples = 10\nvalue = [7, 3]"] ;
742 -> 744 ;
745 [label="entropy = 0.0\nsamples = 5\nvalue = [5, 0]"] ;
744 -> 745 ;
746 [label="x[1] <= 0.297\nentropy = 0.971\nsamples = 5\nvalue = [2, 3]"] ;
744 -> 746 ;
747 [label="x[1] <= 0.278\nentropy = 0.918\nsamples = 3\nvalue = [2, 1]"] ;
746 -> 747 ;
748 [label="entropy = 0.0\nsamples = 1\nvalue = [0, 1]"] ;
747 -> 748 ;
749 [label="entropy = 0.0\nsamples = 2\nvalue = [2, 0]"] ;
747 -> 749 ;
750 [label="entropy = 0.0\nsamples = 2\nvalue = [0, 2]"] ;
746 -> 750 ;
751 [label="x[1] <= 0.203\nentropy = 0.722\nsamples = 11\nvalue = [9, 2]"] ;
739 -> 751 ;
752 [label="entropy = 0.0\nsamples = 1\nvalue = [0, 1]"] ;
751 -> 752 ;
753 [label="x[4] <= 0.002\nentropy = 0.469\nsamples = 10\nvalue = [9, 1]"] ;
751 -> 753 ;
754 [label="entropy = 0.0\nsamples = 8\nvalue = [8, 0]"] ;
753 -> 754 ;
755 [label="entropy = 0.0\nsamples = 2\nvalue = [1, 1]"] ;
753 -> 755 ;
756 [label="x[3] <= 0.015\nentropy = 0.558\nsamples = 192\nvalue = [167, 25]"] ;
738 -> 756 ;
757 [label="x[7] <= 0.061\nentropy = 0.577\nsamples = 182\nvalue = [157, 25]"] ;
756 -> 757 ;
758 [label="x[5] <= 0.062\nentropy = 0.585\nsamples = 174\nvalue = [149, 25]"] ;
757 -> 758 ;
759 [label="x[3] <= 0.006\nentropy = 0.611\nsamples = 166\nvalue = [141, 25]"] ;
758 -> 759 ;
760 [label="x[5] <= 0.013\nentropy = 0.627\nsamples = 149\nvalue = [126, 23]"] ;
759 -> 760 ;
761 [label="x[4] <= 0.0\nentropy = 0.636\nsamples = 140\nvalue = [117, 23]"] ;
760 -> 761 ;
762 [label="x[4] <= 0.0\nentropy = 0.529\nsamples = 97\nvalue = [85, 12]"] ;
761 -> 762 ;
763 [label="x[1] <= 0.222\nentropy = 0.605\nsamples = 79\nvalue = [67, 12]"] ;
762 -> 763 ;
764 [label="x[3] <= 0.0\nentropy = 0.985\nsamples = 7\nvalue = [4, 3]"] ;
763 -> 764 ;
765 [label="x[5] <= 0.0\nentropy = 0.918\nsamples = 4\nvalue = [3, 1]"] ;
764 -> 765 ;
766 [label="x[5] <= 0.0\nentropy = 1.0\nsamples = 2\nvalue = [2, 0]"] ;
765 -> 766 ;
767 [label="entropy = 0.0\nsamples = 1\nvalue = [1, 0]"] ;
766 -> 767 ;
768 [label="entropy = 0.0\nsamples = 1\nvalue = [1, 0]"] ;
766 -> 768 ;
769 [label="entropy = 0.0\nsamples = 2\nvalue = [1, 1]"] ;
765 -> 769 ;
770 [label="entropy = 0.0\nsamples = 3\nvalue = [1, 2]"] ;
764 -> 770 ;
771 [label="x[3] <= 0.0\nentropy = 0.544\nsamples = 72\nvalue = [63, 9]"] ;
763 -> 771 ;
772 [label="x[7] <= 0.029\nentropy = 0.544\nsamples = 46\nvalue = [42, 4]"] ;
771 -> 772 ;
773 [label="entropy = 0.0\nsamples = 12\nvalue = [12, 0]"] ;
772 -> 773 ;
774 [label="x[7] <= 0.03\nentropy = 0.523\nsamples = 34\nvalue = [30, 4]"] ;
772 -> 774 ;
775 [label="entropy = 0.0\nsamples = 1\nvalue = [0, 1]"] ;
774 -> 775 ;
776 [label="x[7] <= 0.034\nentropy = 0.439\nsamples = 33\nvalue = [30, 3]"] ;
774 -> 776 ;
777 [label="entropy = 0.0\nsamples = 11\nvalue = [11, 0]"] ;
776 -> 777 ;
778 [label="x[7] <= 0.034\nentropy = 0.575\nsamples = 22\nvalue = [19, 3]"] ;
776 -> 778 ;
779 [label="entropy = 0.0\nsamples = 1\nvalue = [0, 1]"] ;
778 -> 779 ;
780 [label="x[5] <= 0.0\nentropy = 0.454\nsamples = 21\nvalue = [19, 2]"] ;
778 -> 780 ;
781 [label="x[1] <= 0.259\nentropy = 0.31\nsamples = 16\nvalue = [16, 0]"] ;
780 -> 781 ;
782 [label="entropy = 0.0\nsamples = 2\nvalue = [2, 0]"] ;
781 -> 782 ;
783 [label="entropy = 0.0\nsamples = 14\nvalue = [14, 0]"] ;
781 -> 783 ;
784 [label="x[1] <= 0.367\nentropy = 0.918\nsamples = 5\nvalue = [3, 2]"] ;
780 -> 784 ;
785 [label="entropy = 0.0\nsamples = 2\nvalue = [1, 1]"] ;
784 -> 785 ;
786 [label="entropy = 0.0\nsamples = 3\nvalue = [2, 1]"] ;
784 -> 786 ;
787 [label="entropy = 0.544\nsamples = 26\nvalue = [21, 5]"] ;
771 -> 787 ;
788 [label="entropy = 0.0\nsamples = 18\nvalue = [18, 0]"] ;
762 -> 788 ;
789 [label="x[5] <= 0.001\nentropy = 0.849\nsamples = 43\nvalue = [32, 11]"] ;
761 -> 789 ;
790 [label="x[3] <= 0.0\nentropy = 0.874\nsamples = 33\nvalue = [23, 10]"] ;
789 -> 790 ;
791 [label="x[1] <= 0.373\nentropy = 0.932\nsamples = 22\nvalue = [14, 8]"] ;
790 -> 791 ;
792 [label="x[4] <= 0.001\nentropy = 0.874\nsamples = 16\nvalue = [12, 4]"] ;
791 -> 792 ;
793 [label="x[4] <= 0.001\nentropy = 0.89\nsamples = 12\nvalue = [8, 4]"] ;
792 -> 793 ;
794 [label="x[7] <= 0.045\nentropy = 0.811\nsamples = 7\nvalue = [6, 1]"] ;
793 -> 794 ;
795 [label="x[4] <= 0.0\nentropy = 0.65\nsamples = 5\nvalue = [5, 0]"] ;
794 -> 795 ;
796 [label="entropy = 0.0\nsamples = 2\nvalue = [2, 0]"] ;
795 -> 796 ;
797 [label="entropy = 0.0\nsamples = 3\nvalue = [3, 0]"] ;
795 -> 797 ;
798 [label="entropy = 0.0\nsamples = 2\nvalue = [1, 1]"] ;
794 -> 798 ;
799 [label="x[7] <= 0.03\nentropy = 1.0\nsamples = 5\nvalue = [2, 3]"] ;
793 -> 799 ;
800 [label="entropy = 0.0\nsamples = 2\nvalue = [0, 2]"] ;
799 -> 800 ;
801 [label="x[4] <= 0.001\nentropy = 0.918\nsamples = 3\nvalue = [2, 1]"] ;
799 -> 801 ;
802 [label="entropy = 0.0\nsamples = 1\nvalue = [1, 0]"] ;
801 -> 802 ;
803 [label="x[4] <= 0.001\nentropy = 1.0\nsamples = 2\nvalue = [1, 1]"] ;
801 -> 803 ;
804 [label="entropy = 0.0\nsamples = 1\nvalue = [1, 0]"] ;
803 -> 804 ;
805 [label="entropy = 0.0\nsamples = 1\nvalue = [0, 1]"] ;
803 -> 805 ;
806 [label="entropy = 0.0\nsamples = 4\nvalue = [4, 0]"] ;
792 -> 806 ;
807 [label="x[1] <= 0.462\nentropy = 0.971\nsamples = 6\nvalue = [2, 4]"] ;
791 -> 807 ;
808 [label="entropy = 0.0\nsamples = 3\nvalue = [0, 3]"] ;
807 -> 808 ;
809 [label="x[1] <= 0.563\nentropy = 0.918\nsamples = 3\nvalue = [2, 1]"] ;
807 -> 809 ;
810 [label="entropy = 0.0\nsamples = 1\nvalue = [1, 0]"] ;
809 -> 810 ;
811 [label="x[1] <= 0.614\nentropy = 1.0\nsamples = 2\nvalue = [1, 1]"] ;
809 -> 811 ;
812 [label="entropy = 0.0\nsamples = 1\nvalue = [0, 1]"] ;
811 -> 812 ;
813 [label="entropy = 0.0\nsamples = 1\nvalue = [1, 0]"] ;
811 -> 813 ;
814 [label="x[4] <= 0.0\nentropy = 0.722\nsamples = 11\nvalue = [9, 2]"] ;
790 -> 814 ;
815 [label="x[4] <= 0.0\nentropy = 1.0\nsamples = 4\nvalue = [2, 2]"] ;
814 -> 815 ;
816 [label="x[7] <= 0.031\nentropy = 1.0\nsamples = 2\nvalue = [2, 0]"] ;
815 -> 816 ;
817 [label="entropy = 0.0\nsamples = 1\nvalue = [1, 0]"] ;
816 -> 817 ;
818 [label="entropy = 0.0\nsamples = 1\nvalue = [1, 0]"] ;
816 -> 818 ;
819 [label="x[3] <= 0.003\nentropy = 1.0\nsamples = 2\nvalue = [0, 2]"] ;
815 -> 819 ;
820 [label="entropy = -2.0\nsamples = 1\nvalue = [0, 1]"] ;
819 -> 820 ;
821 [label="entropy = 0.0\nsamples = 1\nvalue = [0, 1]"] ;
819 -> 821 ;
822 [label="entropy = 0.0\nsamples = 7\nvalue = [7, 0]"] ;
814 -> 822 ;
823 [label="x[4] <= 0.0\nentropy = 0.503\nsamples = 10\nvalue = [9, 1]"] ;
789 -> 823 ;
824 [label="x[7] <= 0.029\nentropy = 1.0\nsamples = 2\nvalue = [1, 1]"] ;
823 -> 824 ;
825 [label="entropy = 0.0\nsamples = 1\nvalue = [0, 1]"] ;
824 -> 825 ;
826 [label="entropy = 0.0\nsamples = 1\nvalue = [1, 0]"] ;
824 -> 826 ;
827 [label="entropy = 0.0\nsamples = 8\nvalue = [8, 0]"] ;
823 -> 827 ;
828 [label="entropy = 0.0\nsamples = 9\nvalue = [9, 0]"] ;
760 -> 828 ;
829 [label="x[3] <= 0.012\nentropy = 0.391\nsamples = 17\nvalue = [15, 2]"] ;
759 -> 829 ;
830 [label="entropy = 0.0\nsamples = 12\nvalue = [12, 0]"] ;
829 -> 830 ;
831 [label="x[1] <= 0.62\nentropy = 1.0\nsamples = 5\nvalue = [3, 2]"] ;
829 -> 831 ;
832 [label="x[3] <= 0.014\nentropy = 0.918\nsamples = 3\nvalue = [1, 2]"] ;
831 -> 832 ;
833 [label="x[5] <= 0.001\nentropy = 0.918\nsamples = 2\nvalue = [1, 1]"] ;
832 -> 833 ;
834 [label="entropy = 0.0\nsamples = 1\nvalue = [0, 1]"] ;
833 -> 834 ;
835 [label="entropy = 0.0\nsamples = 1\nvalue = [1, 0]"] ;
833 -> 835 ;
836 [label="entropy = 0.0\nsamples = 1\nvalue = [0, 1]"] ;
832 -> 836 ;
837 [label="entropy = 0.0\nsamples = 2\nvalue = [2, 0]"] ;
831 -> 837 ;
838 [label="entropy = 0.0\nsamples = 8\nvalue = [8, 0]"] ;
758 -> 838 ;
839 [label="entropy = 0.0\nsamples = 8\nvalue = [8, 0]"] ;
757 -> 839 ;
840 [label="entropy = 0.0\nsamples = 10\nvalue = [10, 0]"] ;
756 -> 840 ;
841 [label="x[1] <= 0.728\nentropy = 0.991\nsamples = 9\nvalue = [5, 4]"] ;
737 -> 841 ;
842 [label="entropy = 0.0\nsamples = 4\nvalue = [0, 4]"] ;
841 -> 842 ;
843 [label="entropy = 0.0\nsamples = 5\nvalue = [5, 0]"] ;
841 -> 843 ;
844 [label="entropy = 0.33\nsamples = 40\nvalue = [35, 5]"] ;
736 -> 844 ;
845 [label="entropy = 0.0\nsamples = 11\nvalue = [10, 1]"] ;
735 -> 845 ;
846 [label="x[1] <= 0.405\nentropy = 0.65\nsamples = 13\nvalue = [11, 2]"] ;
734 -> 846 ;
847 [label="entropy = 0.0\nsamples = 9\nvalue = [9, 0]"] ;
846 -> 847 ;
848 [label="x[6] <= 0.0\nentropy = 1.0\nsamples = 4\nvalue = [2, 2]"] ;
846 -> 848 ;
849 [label="entropy = 0.0\nsamples = 2\nvalue = [0, 2]"] ;
848 -> 849 ;
850 [label="entropy = 0.0\nsamples = 2\nvalue = [2, 0]"] ;
848 -> 850 ;
851 [label="x[6] <= 0.0\nentropy = 0.811\nsamples = 4\nvalue = [1, 3]"] ;
733 -> 851 ;
852 [label="entropy = 0.811\nsamples = 3\nvalue = [1, 2]"] ;
851 -> 852 ;
853 [label="entropy = 0.0\nsamples = 1\nvalue = [0, 1]"] ;
851 -> 853 ;
854 [label="x[1] <= 0.323\nentropy = 0.286\nsamples = 111\nvalue = [105, 6]"] ;
732 -> 854 ;
855 [label="x[5] <= 0.019\nentropy = 0.459\nsamples = 62\nvalue = [56, 6]"] ;
854 -> 855 ;
856 [label="x[6] <= 0.002\nentropy = 0.367\nsamples = 57\nvalue = [53, 4]"] ;
855 -> 856 ;
857 [label="entropy = 0.0\nsamples = 29\nvalue = [29, 0]"] ;
856 -> 857 ;
858 [label="x[5] <= 0.0\nentropy = 0.605\nsamples = 28\nvalue = [24, 4]"] ;
856 -> 858 ;
859 [label="x[6] <= 0.002\nentropy = 0.764\nsamples = 17\nvalue = [13, 4]"] ;
858 -> 859 ;
860 [label="entropy = 0.0\nsamples = 1\nvalue = [0, 1]"] ;
859 -> 860 ;
861 [label="x[1] <= 0.234\nentropy = 0.696\nsamples = 16\nvalue = [13, 3]"] ;
859 -> 861 ;
862 [label="x[4] <= 0.0\nentropy = 0.971\nsamples = 5\nvalue = [3, 2]"] ;
861 -> 862 ;
863 [label="x[6] <= 0.003\nentropy = 1.0\nsamples = 3\nvalue = [1, 2]"] ;
862 -> 863 ;
864 [label="entropy = 0.0\nsamples = 1\nvalue = [1, 0]"] ;
863 -> 864 ;
865 [label="entropy = 0.0\nsamples = 2\nvalue = [0, 2]"] ;
863 -> 865 ;
866 [label="entropy = 0.0\nsamples = 2\nvalue = [2, 0]"] ;
862 -> 866 ;
867 [label="x[6] <= 0.006\nentropy = 0.439\nsamples = 11\nvalue = [10, 1]"] ;
861 -> 867 ;
868 [label="entropy = 0.0\nsamples = 9\nvalue = [9, 0]"] ;
867 -> 868 ;
869 [label="entropy = 0.0\nsamples = 2\nvalue = [1, 1]"] ;
867 -> 869 ;
870 [label="entropy = 0.0\nsamples = 11\nvalue = [11, 0]"] ;
858 -> 870 ;
871 [label="x[1] <= 0.259\nentropy = 0.971\nsamples = 5\nvalue = [3, 2]"] ;
855 -> 871 ;
872 [label="entropy = 0.971\nsamples = 3\nvalue = [1, 2]"] ;
871 -> 872 ;
873 [label="entropy = 0.0\nsamples = 2\nvalue = [2, 0]"] ;
871 -> 873 ;
874 [label="entropy = 0.0\nsamples = 49\nvalue = [49, 0]"] ;
854 -> 874 ;
875 [label="x[6] <= 0.008\nentropy = 0.65\nsamples = 18\nvalue = [14, 4]"] ;
731 -> 875 ;
876 [label="entropy = 0.0\nsamples = 3\nvalue = [0, 3]"] ;
875 -> 876 ;
877 [label="x[5] <= 0.003\nentropy = 0.353\nsamples = 15\nvalue = [14, 1]"] ;
875 -> 877 ;
878 [label="entropy = 0.353\nsamples = 12\nvalue = [11, 1]"] ;
877 -> 878 ;
879 [label="entropy = 0.0\nsamples = 3\nvalue = [3, 0]"] ;
877 -> 879 ;
880 [label="x[5] <= 0.011\nentropy = 0.994\nsamples = 11\nvalue = [6, 5]"] ;
730 -> 880 ;
881 [label="x[1] <= 0.272\nentropy = 0.994\nsamples = 8\nvalue = [3, 5]"] ;
880 -> 881 ;
882 [label="x[1] <= 0.247\nentropy = 0.971\nsamples = 5\nvalue = [3, 2]"] ;
881 -> 882 ;
883 [label="x[7] <= 0.029\nentropy = 0.918\nsamples = 3\nvalue = [1, 2]"] ;
882 -> 883 ;
884 [label="x[7] <= 0.021\nentropy = 0.918\nsamples = 2\nvalue = [1, 1]"] ;
883 -> 884 ;
885 [label="entropy = 0.0\nsamples = 1\nvalue = [0, 1]"] ;
884 -> 885 ;
886 [label="entropy = 0.0\nsamples = 1\nvalue = [1, 0]"] ;
884 -> 886 ;
887 [label="entropy = 0.0\nsamples = 1\nvalue = [0, 1]"] ;
883 -> 887 ;
888 [label="entropy = 0.0\nsamples = 2\nvalue = [2, 0]"] ;
882 -> 888 ;
889 [label="entropy = 0.0\nsamples = 3\nvalue = [0, 3]"] ;
881 -> 889 ;
890 [label="entropy = 0.0\nsamples = 3\nvalue = [3, 0]"] ;
880 -> 890 ;
891 [label="x[5] <= 0.083\nentropy = 0.864\nsamples = 164\nvalue = [117, 47]"] ;
729 -> 891 ;
892 [label="x[1] <= 0.209\nentropy = 0.833\nsamples = 159\nvalue = [117, 42]"] ;
891 -> 892 ;
893 [label="entropy = 0.0\nsamples = 10\nvalue = [10, 0]"] ;
892 -> 893 ;
894 [label="x[1] <= 0.399\nentropy = 0.858\nsamples = 149\nvalue = [107, 42]"] ;
892 -> 894 ;
895 [label="x[1] <= 0.361\nentropy = 0.95\nsamples = 81\nvalue = [51, 30]"] ;
894 -> 895 ;
896 [label="x[7] <= 0.041\nentropy = 0.946\nsamples = 67\nvalue = [48, 19]"] ;
895 -> 896 ;
897 [label="x[3] <= 0.006\nentropy = 0.93\nsamples = 53\nvalue = [34, 19]"] ;
896 -> 897 ;
898 [label="x[3] <= 0.001\nentropy = 0.963\nsamples = 49\nvalue = [30, 19]"] ;
897 -> 898 ;
899 [label="x[1] <= 0.222\nentropy = 0.918\nsamples = 45\nvalue = [30, 15]"] ;
898 -> 899 ;
900 [label="entropy = 0.0\nsamples = 2\nvalue = [0, 2]"] ;
899 -> 900 ;
901 [label="x[4] <= 0.007\nentropy = 0.884\nsamples = 43\nvalue = [30, 13]"] ;
899 -> 901 ;
902 [label="entropy = 0.811\nsamples = 4\nvalue = [1, 3]"] ;
901 -> 902 ;
903 [label="x[7] <= 0.027\nentropy = 0.821\nsamples = 39\nvalue = [29, 10]"] ;
901 -> 903 ;
904 [label="x[4] <= 0.013\nentropy = 0.753\nsamples = 30\nvalue = [25, 5]"] ;
903 -> 904 ;
905 [label="entropy = 0.0\nsamples = 12\nvalue = [12, 0]"] ;
904 -> 905 ;
906 [label="x[4] <= 0.016\nentropy = 0.852\nsamples = 18\nvalue = [13, 5]"] ;
904 -> 906 ;
907 [label="entropy = 0.0\nsamples = 2\nvalue = [0, 2]"] ;
906 -> 907 ;
908 [label="x[6] <= 0.006\nentropy = 0.696\nsamples = 16\nvalue = [13, 3]"] ;
906 -> 908 ;
909 [label="x[6] <= 0.0\nentropy = 0.414\nsamples = 11\nvalue = [11, 0]"] ;
908 -> 909 ;
910 [label="entropy = 0.0\nsamples = 6\nvalue = [6, 0]"] ;
909 -> 910 ;
911 [label="entropy = 0.0\nsamples = 5\nvalue = [5, 0]"] ;
909 -> 911 ;
912 [label="x[5] <= 0.0\nentropy = 1.0\nsamples = 5\nvalue = [2, 3]"] ;
908 -> 912 ;
913 [label="entropy = 0.0\nsamples = 2\nvalue = [0, 2]"] ;
912 -> 913 ;
914 [label="x[6] <= 0.006\nentropy = 0.918\nsamples = 3\nvalue = [2, 1]"] ;
912 -> 914 ;
915 [label="entropy = 0.0\nsamples = 1\nvalue = [0, 1]"] ;
914 -> 915 ;
916 [label="entropy = 0.0\nsamples = 2\nvalue = [2, 0]"] ;
914 -> 916 ;
917 [label="entropy = 0.0\nsamples = 9\nvalue = [4, 5]"] ;
903 -> 917 ;
918 [label="entropy = 0.0\nsamples = 4\nvalue = [0, 4]"] ;
898 -> 918 ;
919 [label="entropy = 0.0\nsamples = 4\nvalue = [4, 0]"] ;
897 -> 919 ;
920 [label="entropy = 0.0\nsamples = 14\nvalue = [14, 0]"] ;
896 -> 920 ;
921 [label="x[5] <= 0.003\nentropy = 1.0\nsamples = 14\nvalue = [3, 11]"] ;
895 -> 921 ;
922 [label="x[1] <= 0.386\nentropy = 0.779\nsamples = 12\nvalue = [2, 10]"] ;
921 -> 922 ;
923 [label="x[6] <= 0.0\nentropy = 0.544\nsamples = 7\nvalue = [0, 7]"] ;
922 -> 923 ;
924 [label="entropy = 0.0\nsamples = 3\nvalue = [0, 3]"] ;
923 -> 924 ;
925 [label="entropy = 0.0\nsamples = 4\nvalue = [0, 4]"] ;
923 -> 925 ;
926 [label="x[4] <= 0.039\nentropy = 0.811\nsamples = 5\nvalue = [2, 3]"] ;
922 -> 926 ;
927 [label="entropy = 0.0\nsamples = 2\nvalue = [2, 0]"] ;
926 -> 927 ;
928 [label="entropy = 0.0\nsamples = 3\nvalue = [0, 3]"] ;
926 -> 928 ;
929 [label="entropy = 0.0\nsamples = 2\nvalue = [1, 1]"] ;
921 -> 929 ;
930 [label="x[3] <= 0.0\nentropy = 0.656\nsamples = 68\nvalue = [56, 12]"] ;
894 -> 930 ;
931 [label="x[6] <= 0.004\nentropy = 0.811\nsamples = 48\nvalue = [36, 12]"] ;
930 -> 931 ;
932 [label="x[7] <= 0.017\nentropy = 0.928\nsamples = 32\nvalue = [21, 11]"] ;
931 -> 932 ;
933 [label="entropy = 0.0\nsamples = 4\nvalue = [0, 4]"] ;
932 -> 933 ;
934 [label="x[1] <= 0.525\nentropy = 0.811\nsamples = 28\nvalue = [21, 7]"] ;
932 -> 934 ;
935 [label="entropy = 0.0\nsamples = 12\nvalue = [12, 0]"] ;
934 -> 935 ;
936 [label="x[6] <= 0.0\nentropy = 0.989\nsamples = 16\nvalue = [9, 7]"] ;
934 -> 936 ;
937 [label="x[6] <= 0.0\nentropy = 0.996\nsamples = 12\nvalue = [6, 6]"] ;
936 -> 937 ;
938 [label="x[6] <= 0.0\nentropy = 0.994\nsamples = 10\nvalue = [5, 5]"] ;
937 -> 938 ;
939 [label="x[4] <= 0.017\nentropy = 0.991\nsamples = 8\nvalue = [4, 4]"] ;
938 -> 939 ;
940 [label="entropy = 0.0\nsamples = 2\nvalue = [0, 2]"] ;
939 -> 940 ;
941 [label="x[4] <= 0.044\nentropy = 0.918\nsamples = 6\nvalue = [4, 2]"] ;
939 -> 941 ;
942 [label="x[1] <= 0.57\nentropy = 0.918\nsamples = 3\nvalue = [3, 0]"] ;
941 -> 942 ;
943 [label="entropy = 0.0\nsamples = 1\nvalue = [1, 0]"] ;
942 -> 943 ;
944 [label="entropy = 0.0\nsamples = 2\nvalue = [2, 0]"] ;
942 -> 944 ;
945 [label="x[4] <= 0.081\nentropy = 0.918\nsamples = 3\nvalue = [1, 2]"] ;
941 -> 945 ;
946 [label="x[4] <= 0.057\nentropy = 0.918\nsamples = 2\nvalue = [0, 2]"] ;
945 -> 946 ;
947 [label="entropy = -2.0\nsamples = 1\nvalue = [0, 1]"] ;
946 -> 947 ;
948 [label="entropy = 0.0\nsamples = 1\nvalue = [0, 1]"] ;
946 -> 948 ;
949 [label="entropy = 0.0\nsamples = 1\nvalue = [1, 0]"] ;
945 -> 949 ;
950 [label="entropy = 0.0\nsamples = 2\nvalue = [1, 1]"] ;
938 -> 950 ;
951 [label="entropy = 0.0\nsamples = 2\nvalue = [1, 1]"] ;
937 -> 951 ;
952 [label="x[4] <= 0.039\nentropy = 0.918\nsamples = 4\nvalue = [3, 1]"] ;
936 -> 952 ;
953 [label="entropy = 0.0\nsamples = 1\nvalue = [0, 1]"] ;
952 -> 953 ;
954 [label="entropy = 0.0\nsamples = 3\nvalue = [3, 0]"] ;
952 -> 954 ;
955 [label="x[2] <= 0.5\nentropy = 0.337\nsamples = 16\nvalue = [15, 1]"] ;
931 -> 955 ;
956 [label="entropy = 0.0\nsamples = 14\nvalue = [14, 0]"] ;
955 -> 956 ;
957 [label="x[4] <= 0.026\nentropy = 1.0\nsamples = 2\nvalue = [1, 1]"] ;
955 -> 957 ;
958 [label="entropy = 0.0\nsamples = 1\nvalue = [0, 1]"] ;
957 -> 958 ;
959 [label="entropy = 0.0\nsamples = 1\nvalue = [1, 0]"] ;
957 -> 959 ;
960 [label="entropy = 0.0\nsamples = 20\nvalue = [20, 0]"] ;
930 -> 960 ;
961 [label="entropy = 0.0\nsamples = 5\nvalue = [0, 5]"] ;
891 -> 961 ;
962 [label="entropy = 0.21\nsamples = 166\nvalue = [159, 7]"] ;
728 -> 962 ;
963 [label="x[7] <= 0.077\nentropy = 0.838\nsamples = 86\nvalue = [23, 63]"] ;
727 -> 963 ;
964 [label="x[3] <= 0.021\nentropy = 0.362\nsamples = 54\nvalue = [3, 51]"] ;
963 -> 964 ;
965 [label="x[3] <= 0.016\nentropy = 0.141\nsamples = 50\nvalue = [1, 49]"] ;
964 -> 965 ;
966 [label="x[4] <= 0.105\nentropy = 0.141\nsamples = 49\nvalue = [1, 48]"] ;
965 -> 966 ;
967 [label="x[7] <= 0.025\nentropy = 0.811\nsamples = 4\nvalue = [1, 3]"] ;
966 -> 967 ;
968 [label="entropy = 0.0\nsamples = 2\nvalue = [0, 2]"] ;
967 -> 968 ;
969 [label="x[1] <= 0.392\nentropy = 1.0\nsamples = 2\nvalue = [1, 1]"] ;
967 -> 969 ;
970 [label="entropy = 0.0\nsamples = 1\nvalue = [0, 1]"] ;
969 -> 970 ;
971 [label="entropy = 0.0\nsamples = 1\nvalue = [1, 0]"] ;
969 -> 971 ;
972 [label="entropy = 0.0\nsamples = 45\nvalue = [0, 45]"] ;
966 -> 972 ;
973 [label="entropy = 0.0\nsamples = 1\nvalue = [0, 1]"] ;
965 -> 973 ;
974 [label="x[7] <= 0.027\nentropy = 1.0\nsamples = 4\nvalue = [2, 2]"] ;
964 -> 974 ;
975 [label="entropy = 0.0\nsamples = 2\nvalue = [0, 2]"] ;
974 -> 975 ;
976 [label="entropy = 0.0\nsamples = 2\nvalue = [2, 0]"] ;
974 -> 976 ;
977 [label="x[1] <= 0.348\nentropy = 0.906\nsamples = 32\nvalue = [20, 12]"] ;
963 -> 977 ;
978 [label="entropy = 0.0\nsamples = 7\nvalue = [0, 7]"] ;
977 -> 978 ;
979 [label="x[4] <= 0.438\nentropy = 0.722\nsamples = 25\nvalue = [20, 5]"] ;
977 -> 979 ;
980 [label="x[1] <= 0.715\nentropy = 0.65\nsamples = 23\nvalue = [20, 3]"] ;
979 -> 980 ;
981 [label="x[4] <= 0.099\nentropy = 0.559\nsamples = 22\nvalue = [19, 3]"] ;
980 -> 981 ;
982 [label="entropy = 0.0\nsamples = 1\nvalue = [0, 1]"] ;
981 -> 982 ;
983 [label="x[6] <= inf\nentropy = 0.454\nsamples = 21\nvalue = [19, 2]"] ;
981 -> 983 ;
984 [label="x[7] <= 0.528\nentropy = 0.286\nsamples = 20\nvalue = [19, 1]"] ;
983 -> 984 ;
985 [label="x[4] <= 0.309\nentropy = 0.286\nsamples = 19\nvalue = [18, 1]"] ;
984 -> 985 ;
986 [label="entropy = 0.0\nsamples = 17\nvalue = [17, 0]"] ;
985 -> 986 ;
987 [label="entropy = 0.0\nsamples = 2\nvalue = [1, 1]"] ;
985 -> 987 ;
988 [label="entropy = 0.0\nsamples = 1\nvalue = [1, 0]"] ;
984 -> 988 ;
989 [label="entropy = 0.0\nsamples = 1\nvalue = [0, 1]"] ;
983 -> 989 ;
990 [label="entropy = 0.0\nsamples = 1\nvalue = [1, 0]"] ;
980 -> 990 ;
991 [label="entropy = 0.0\nsamples = 2\nvalue = [0, 2]"] ;
979 -> 991 ;
992 [label="x[4] <= 0.045\nentropy = 0.691\nsamples = 1303\nvalue = [1062, 241]"] ;
2 -> 992 ;
993 [label="x[6] <= 0.067\nentropy = 0.557\nsamples = 1010\nvalue = [879, 131]"] ;
992 -> 993 ;
994 [label="entropy = 0.628\nsamples = 730\nvalue = [610, 120]"] ;
993 -> 994 ;
995 [label="x[6] <= 0.167\nentropy = 0.263\nsamples = 280\nvalue = [269, 11]"] ;
993 -> 995 ;
996 [label="x[4] <= 0.018\nentropy = 0.327\nsamples = 180\nvalue = [169, 11]"] ;
995 -> 996 ;
997 [label="x[6] <= 0.163\nentropy = 0.194\nsamples = 134\nvalue = [130, 4]"] ;
996 -> 997 ;
998 [label="x[6] <= 0.099\nentropy = 0.195\nsamples = 131\nvalue = [128, 3]"] ;
997 -> 998 ;
999 [label="entropy = 0.231\nsamples = 78\nvalue = [75, 3]"] ;
998 -> 999 ;
1000 [label="entropy = 0.0\nsamples = 53\nvalue = [53, 0]"] ;
998 -> 1000 ;
1001 [label="entropy = 0.0\nsamples = 3\nvalue = [2, 1]"] ;
997 -> 1001 ;
1002 [label="x[7] <= 0.028\nentropy = 0.615\nsamples = 46\nvalue = [39, 7]"] ;
996 -> 1002 ;
1003 [label="x[1] <= 0.665\nentropy = 0.784\nsamples = 30\nvalue = [23, 7]"] ;
1002 -> 1003 ;
1004 [label="x[6] <= 0.123\nentropy = 0.784\nsamples = 28\nvalue = [23, 5]"] ;
1003 -> 1004 ;
1005 [label="x[7] <= 0.001\nentropy = 0.852\nsamples = 17\nvalue = [12, 5]"] ;
1004 -> 1005 ;
1006 [label="entropy = 0.0\nsamples = 6\nvalue = [6, 0]"] ;
1005 -> 1006 ;
1007 [label="x[7] <= 0.004\nentropy = 0.994\nsamples = 11\nvalue = [6, 5]"] ;
1005 -> 1007 ;
1008 [label="entropy = 0.0\nsamples = 2\nvalue = [0, 2]"] ;
1007 -> 1008 ;
1009 [label="x[4] <= 0.031\nentropy = 0.918\nsamples = 9\nvalue = [6, 3]"] ;
1007 -> 1009 ;
1010 [label="x[6] <= 0.078\nentropy = 0.971\nsamples = 5\nvalue = [2, 3]"] ;
1009 -> 1010 ;
1011 [label="entropy = 0.0\nsamples = 1\nvalue = [1, 0]"] ;
1010 -> 1011 ;
1012 [label="x[4] <= 0.029\nentropy = 0.811\nsamples = 4\nvalue = [1, 3]"] ;
1010 -> 1012 ;
1013 [label="x[1] <= 0.525\nentropy = 1.0\nsamples = 2\nvalue = [1, 1]"] ;
1012 -> 1013 ;
1014 [label="entropy = 0.0\nsamples = 1\nvalue = [0, 1]"] ;
1013 -> 1014 ;
1015 [label="entropy = 0.0\nsamples = 1\nvalue = [1, 0]"] ;
1013 -> 1015 ;
1016 [label="entropy = 0.0\nsamples = 2\nvalue = [0, 2]"] ;
1012 -> 1016 ;
1017 [label="entropy = 0.0\nsamples = 4\nvalue = [4, 0]"] ;
1009 -> 1017 ;
1018 [label="entropy = 0.0\nsamples = 11\nvalue = [11, 0]"] ;
1004 -> 1018 ;
1019 [label="entropy = 0.0\nsamples = 2\nvalue = [0, 2]"] ;
1003 -> 1019 ;
1020 [label="entropy = 0.0\nsamples = 16\nvalue = [16, 0]"] ;
1002 -> 1020 ;
1021 [label="entropy = 0.0\nsamples = 100\nvalue = [100, 0]"] ;
995 -> 1021 ;
1022 [label="x[6] <= 0.129\nentropy = 0.955\nsamples = 293\nvalue = [183, 110]"] ;
992 -> 1022 ;
1023 [label="x[7] <= 0.03\nentropy = 0.999\nsamples = 216\nvalue = [107, 109]"] ;
1022 -> 1023 ;
1024 [label="x[6] <= 0.054\nentropy = 0.935\nsamples = 148\nvalue = [52, 96]"] ;
1023 -> 1024 ;
1025 [label="x[4] <= 0.109\nentropy = 0.777\nsamples = 90\nvalue = [19, 71]"] ;
1024 -> 1025 ;
1026 [label="x[1] <= 0.304\nentropy = 0.946\nsamples = 44\nvalue = [16, 28]"] ;
1025 -> 1026 ;
1027 [label="entropy = 0.0\nsamples = 7\nvalue = [0, 7]"] ;
1026 -> 1027 ;
1028 [label="x[1] <= 0.335\nentropy = 0.987\nsamples = 37\nvalue = [16, 21]"] ;
1026 -> 1028 ;
1029 [label="entropy = 0.0\nsamples = 4\nvalue = [4, 0]"] ;
1028 -> 1029 ;
1030 [label="x[4] <= 0.099\nentropy = 0.946\nsamples = 33\nvalue = [12, 21]"] ;
1028 -> 1030 ;
1031 [label="x[7] <= 0.012\nentropy = 0.85\nsamples = 28\nvalue = [8, 20]"] ;
1030 -> 1031 ;
1032 [label="x[4] <= 0.078\nentropy = 0.959\nsamples = 21\nvalue = [8, 13]"] ;
1031 -> 1032 ;
1033 [label="x[1] <= 0.519\nentropy = 0.998\nsamples = 16\nvalue = [8, 8]"] ;
1032 -> 1033 ;
1034 [label="x[6] <= 0.021\nentropy = 0.946\nsamples = 10\nvalue = [3, 7]"] ;
1033 -> 1034 ;
1035 [label="entropy = 0.0\nsamples = 4\nvalue = [0, 4]"] ;
1034 -> 1035 ;
1036 [label="x[6] <= 0.033\nentropy = 1.0\nsamples = 6\nvalue = [3, 3]"] ;
1034 -> 1036 ;
1037 [label="entropy = 0.0\nsamples = 3\nvalue = [3, 0]"] ;
1036 -> 1037 ;
1038 [label="entropy = 0.0\nsamples = 3\nvalue = [0, 3]"] ;
1036 -> 1038 ;
1039 [label="x[5] <= 0.058\nentropy = 0.722\nsamples = 6\nvalue = [5, 1]"] ;
1033 -> 1039 ;
1040 [label="x[4] <= 0.07\nentropy = 0.65\nsamples = 5\nvalue = [4, 1]"] ;
1039 -> 1040 ;
1041 [label="entropy = 0.0\nsamples = 3\nvalue = [3, 0]"] ;
1040 -> 1041 ;
1042 [label="entropy = 0.0\nsamples = 2\nvalue = [1, 1]"] ;
1040 -> 1042 ;
1043 [label="entropy = 0.0\nsamples = 1\nvalue = [1, 0]"] ;
1039 -> 1043 ;
1044 [label="entropy = 0.0\nsamples = 5\nvalue = [0, 5]"] ;
1032 -> 1044 ;
1045 [label="entropy = 0.0\nsamples = 7\nvalue = [0, 7]"] ;
1031 -> 1045 ;
1046 [label="entropy = 0.0\nsamples = 5\nvalue = [4, 1]"] ;
1030 -> 1046 ;
1047 [label="x[3] <= 0.004\nentropy = 0.348\nsamples = 46\nvalue = [3, 43]"] ;
1025 -> 1047 ;
1048 [label="x[5] <= 0.001\nentropy = 0.353\nsamples = 44\nvalue = [2, 42]"] ;
1047 -> 1048 ;
1049 [label="x[4] <= 0.11\nentropy = 0.179\nsamples = 36\nvalue = [0, 36]"] ;
1048 -> 1049 ;
1050 [label="entropy = 0.0\nsamples = 1\nvalue = [0, 1]"] ;
1049 -> 1050 ;
1051 [label="entropy = 0.0\nsamples = 35\nvalue = [0, 35]"] ;
1049 -> 1051 ;
1052 [label="entropy = 0.592\nsamples = 8\nvalue = [2, 6]"] ;
1048 -> 1052 ;
1053 [label="entropy = 0.0\nsamples = 2\nvalue = [1, 1]"] ;
1047 -> 1053 ;
1054 [label="x[4] <= 0.131\nentropy = 0.983\nsamples = 58\nvalue = [33, 25]"] ;
1024 -> 1054 ;
1055 [label="x[6] <= 0.08\nentropy = 0.89\nsamples = 36\nvalue = [27, 9]"] ;
1054 -> 1055 ;
1056 [label="x[6] <= 0.074\nentropy = 0.943\nsamples = 22\nvalue = [13, 9]"] ;
1055 -> 1056 ;
1057 [label="x[6] <= 0.063\nentropy = 0.9\nsamples = 17\nvalue = [13, 4]"] ;
1056 -> 1057 ;
1058 [label="entropy = 0.89\nsamples = 11\nvalue = [7, 4]"] ;
1057 -> 1058 ;
1059 [label="entropy = 0.0\nsamples = 6\nvalue = [6, 0]"] ;
1057 -> 1059 ;
1060 [label="entropy = 0.0\nsamples = 5\nvalue = [0, 5]"] ;
1056 -> 1060 ;
1061 [label="entropy = 0.0\nsamples = 14\nvalue = [14, 0]"] ;
1055 -> 1061 ;
1062 [label="x[7] <= 0.001\nentropy = 0.9\nsamples = 22\nvalue = [6, 16]"] ;
1054 -> 1062 ;
1063 [label="entropy = 0.0\nsamples = 10\nvalue = [0, 10]"] ;
1062 -> 1063 ;
1064 [label="x[7] <= 0.003\nentropy = 1.0\nsamples = 12\nvalue = [6, 6]"] ;
1062 -> 1064 ;
1065 [label="entropy = 0.0\nsamples = 3\nvalue = [3, 0]"] ;
1064 -> 1065 ;
1066 [label="x[3] <= 0.001\nentropy = 0.918\nsamples = 9\nvalue = [3, 6]"] ;
1064 -> 1066 ;
1067 [label="x[6] <= 0.107\nentropy = 0.811\nsamples = 7\nvalue = [1, 6]"] ;
1066 -> 1067 ;
1068 [label="entropy = 0.592\nsamples = 6\nvalue = [1, 5]"] ;
1067 -> 1068 ;
1069 [label="entropy = 0.0\nsamples = 1\nvalue = [0, 1]"] ;
1067 -> 1069 ;
1070 [label="entropy = 0.0\nsamples = 2\nvalue = [2, 0]"] ;
1066 -> 1070 ;
1071 [label="x[7] <= 0.13\nentropy = 0.704\nsamples = 68\nvalue = [55, 13]"] ;
1023 -> 1071 ;
1072 [label="x[4] <= 0.281\nentropy = 0.859\nsamples = 44\nvalue = [31, 13]"] ;
1071 -> 1072 ;
1073 [label="x[4] <= 0.066\nentropy = 0.854\nsamples = 40\nvalue = [31, 9]"] ;
1072 -> 1073 ;
1074 [label="entropy = 0.0\nsamples = 9\nvalue = [9, 0]"] ;
1073 -> 1074 ;
1075 [label="x[1] <= 0.342\nentropy = 0.869\nsamples = 31\nvalue = [22, 9]"] ;
1073 -> 1075 ;
1076 [label="entropy = 0.0\nsamples = 7\nvalue = [7, 0]"] ;
1075 -> 1076 ;
1077 [label="x[6] <= 0.049\nentropy = 0.954\nsamples = 24\nvalue = [15, 9]"] ;
1075 -> 1077 ;
1078 [label="x[6] <= 0.035\nentropy = 0.998\nsamples = 15\nvalue = [7, 8]"] ;
1077 -> 1078 ;
1079 [label="x[4] <= 0.099\nentropy = 0.996\nsamples = 12\nvalue = [7, 5]"] ;
1078 -> 1079 ;
1080 [label="entropy = 0.0\nsamples = 2\nvalue = [0, 2]"] ;
1079 -> 1080 ;
1081 [label="x[1] <= 0.5\nentropy = 0.881\nsamples = 10\nvalue = [7, 3]"] ;
1079 -> 1081 ;
1082 [label="x[4] <= 0.137\nentropy = 0.985\nsamples = 6\nvalue = [3, 3]"] ;
1081 -> 1082 ;
1083 [label="x[6] <= 0.029\nentropy = 0.971\nsamples = 4\nvalue = [3, 1]"] ;
1082 -> 1083 ;
1084 [label="entropy = 0.811\nsamples = 3\nvalue = [2, 1]"] ;
1083 -> 1084 ;
1085 [label="entropy = 0.0\nsamples = 1\nvalue = [1, 0]"] ;
1083 -> 1085 ;
1086 [label="entropy = 0.0\nsamples = 2\nvalue = [0, 2]"] ;
1082 -> 1086 ;
1087 [label="entropy = 0.0\nsamples = 4\nvalue = [4, 0]"] ;
1081 -> 1087 ;
1088 [label="entropy = 0.0\nsamples = 3\nvalue = [0, 3]"] ;
1078 -> 1088 ;
1089 [label="entropy = 0.0\nsamples = 9\nvalue = [8, 1]"] ;
1077 -> 1089 ;
1090 [label="entropy = 0.0\nsamples = 4\nvalue = [0, 4]"] ;
1072 -> 1090 ;
1091 [label="entropy = 0.0\nsamples = 24\nvalue = [24, 0]"] ;
1071 -> 1091 ;
1092 [label="x[7] <= 0.0\nentropy = 0.111\nsamples = 77\nvalue = [76, 1]"] ;
1022 -> 1092 ;
1093 [label="x[1] <= 0.437\nentropy = 0.722\nsamples = 5\nvalue = [4, 1]"] ;
1092 -> 1093 ;
1094 [label="entropy = 0.0\nsamples = 1\nvalue = [0, 1]"] ;
1093 -> 1094 ;
1095 [label="entropy = 0.0\nsamples = 4\nvalue = [4, 0]"] ;
1093 -> 1095 ;
1096 [label="entropy = 0.0\nsamples = 72\nvalue = [72, 0]"] ;
1092 -> 1096 ;
1097 [label="x[4] <= 0.033\nentropy = 0.627\nsamples = 1432\nvalue = [1207, 225]"] ;
1 -> 1097 ;
1098 [label="x[5] <= 0.055\nentropy = 0.587\nsamples = 1341\nvalue = [1152, 189]"] ;
1097 -> 1098 ;
1099 [label="x[6] <= 0.018\nentropy = 0.551\nsamples = 1276\nvalue = [1113, 163]"] ;
1098 -> 1099 ;
1100 [label="x[3] <= 0.184\nentropy = 0.582\nsamples = 1156\nvalue = [995, 161]"] ;
1099 -> 1100 ;
1101 [label="entropy = 0.599\nsamples = 1071\nvalue = [912, 159]"] ;
1100 -> 1101 ;
1102 [label="x[4] <= 0.023\nentropy = 0.196\nsamples = 85\nvalue = [83, 2]"] ;
1100 -> 1102 ;
1103 [label="x[3] <= 0.209\nentropy = 0.094\nsamples = 83\nvalue = [82, 1]"] ;
1102 -> 1103 ;
1104 [label="x[1] <= 0.323\nentropy = 0.258\nsamples = 23\nvalue = [22, 1]"] ;
1103 -> 1104 ;
1105 [label="x[5] <= 0.0\nentropy = 0.592\nsamples = 7\nvalue = [6, 1]"] ;
1104 -> 1105 ;
1106 [label="entropy = 0.0\nsamples = 1\nvalue = [0, 1]"] ;
1105 -> 1106 ;
1107 [label="entropy = 0.0\nsamples = 6\nvalue = [6, 0]"] ;
1105 -> 1107 ;
1108 [label="entropy = 0.0\nsamples = 16\nvalue = [16, 0]"] ;
1104 -> 1108 ;
1109 [label="entropy = 0.0\nsamples = 60\nvalue = [60, 0]"] ;
1103 -> 1109 ;
1110 [label="entropy = 1.0\nsamples = 2\nvalue = [1, 1]"] ;
1102 -> 1110 ;
1111 [label="x[7] <= 0.0\nentropy = 0.122\nsamples = 120\nvalue = [118, 2]"] ;
1099 -> 1111 ;
1112 [label="entropy = 0.0\nsamples = 77\nvalue = [77, 0]"] ;
1111 -> 1112 ;
1113 [label="x[7] <= 0.0\nentropy = 0.271\nsamples = 43\nvalue = [41, 2]"] ;
1111 -> 1113 ;
1114 [label="entropy = 0.0\nsamples = 2\nvalue = [0, 2]"] ;
1113 -> 1114 ;
1115 [label="entropy = 0.0\nsamples = 41\nvalue = [41, 0]"] ;
1113 -> 1115 ;
1116 [label="x[5] <= 0.238\nentropy = 0.971\nsamples = 65\nvalue = [39, 26]"] ;
1098 -> 1116 ;
1117 [label="x[7] <= 0.0\nentropy = 0.959\nsamples = 62\nvalue = [39, 23]"] ;
1116 -> 1117 ;
1118 [label="x[6] <= 0.011\nentropy = 0.994\nsamples = 44\nvalue = [24, 20]"] ;
1117 -> 1118 ;
1119 [label="x[6] <= 0.003\nentropy = 1.0\nsamples = 40\nvalue = [20, 20]"] ;
1118 -> 1119 ;
1120 [label="x[6] <= 0.001\nentropy = 0.977\nsamples = 34\nvalue = [20, 14]"] ;
1119 -> 1120 ;
1121 [label="x[5] <= 0.058\nentropy = 0.971\nsamples = 29\nvalue = [18, 11]"] ;
1120 -> 1121 ;
1122 [label="entropy = 0.0\nsamples = 2\nvalue = [0, 2]"] ;
1121 -> 1122 ;
1123 [label="x[4] <= 0.001\nentropy = 0.918\nsamples = 27\nvalue = [18, 9]"] ;
1121 -> 1123 ;
1124 [label="x[1] <= 0.392\nentropy = 0.976\nsamples = 22\nvalue = [13, 9]"] ;
1123 -> 1124 ;
1125 [label="x[5] <= 0.104\nentropy = 1.0\nsamples = 13\nvalue = [6, 7]"] ;
1124 -> 1125 ;
1126 [label="x[3] <= 0.043\nentropy = 0.918\nsamples = 8\nvalue = [2, 6]"] ;
1125 -> 1126 ;
1127 [label="x[3] <= 0.03\nentropy = 0.811\nsamples = 4\nvalue = [2, 2]"] ;
1126 -> 1127 ;
1128 [label="entropy = 0.0\nsamples = 1\nvalue = [1, 0]"] ;
1127 -> 1128 ;
1129 [label="x[5] <= 0.087\nentropy = 0.918\nsamples = 3\nvalue = [1, 2]"] ;
1127 -> 1129 ;
1130 [label="x[1] <= 0.259\nentropy = 0.918\nsamples = 2\nvalue = [1, 1]"] ;
1129 -> 1130 ;
1131 [label="entropy = 0.0\nsamples = 1\nvalue = [0, 1]"] ;
1130 -> 1131 ;
1132 [label="entropy = 0.0\nsamples = 1\nvalue = [1, 0]"] ;
1130 -> 1132 ;
1133 [label="entropy = 0.0\nsamples = 1\nvalue = [0, 1]"] ;
1129 -> 1133 ;
1134 [label="x[4] <= 0.0\nentropy = 0.811\nsamples = 4\nvalue = [0, 4]"] ;
1126 -> 1134 ;
1135 [label="entropy = 0.0\nsamples = 3\nvalue = [0, 3]"] ;
1134 -> 1135 ;
1136 [label="entropy = 0.0\nsamples = 1\nvalue = [0, 1]"] ;
1134 -> 1136 ;
1137 [label="x[3] <= 0.055\nentropy = 0.811\nsamples = 5\nvalue = [4, 1]"] ;
1125 -> 1137 ;
1138 [label="entropy = 0.0\nsamples = 1\nvalue = [0, 1]"] ;
1137 -> 1138 ;
1139 [label="entropy = 0.0\nsamples = 4\nvalue = [4, 0]"] ;
1137 -> 1139 ;
1140 [label="x[3] <= 0.037\nentropy = 0.811\nsamples = 9\nvalue = [7, 2]"] ;
1124 -> 1140 ;
1141 [label="x[4] <= 0.0\nentropy = 1.0\nsamples = 4\nvalue = [2, 2]"] ;
1140 -> 1141 ;
1142 [label="entropy = 0.0\nsamples = 2\nvalue = [1, 1]"] ;
1141 -> 1142 ;
1143 [label="entropy = 0.0\nsamples = 2\nvalue = [1, 1]"] ;
1141 -> 1143 ;
1144 [label="entropy = 0.0\nsamples = 5\nvalue = [5, 0]"] ;
1140 -> 1144 ;
1145 [label="entropy = 0.0\nsamples = 5\nvalue = [5, 0]"] ;
1123 -> 1145 ;
1146 [label="x[6] <= 0.002\nentropy = 1.0\nsamples = 5\nvalue = [2, 3]"] ;
1120 -> 1146 ;
1147 [label="x[6] <= 0.001\nentropy = 0.811\nsamples = 3\nvalue = [0, 3]"] ;
1146 -> 1147 ;
1148 [label="entropy = 0.0\nsamples = 2\nvalue = [0, 2]"] ;
1147 -> 1148 ;
1149 [label="entropy = 0.0\nsamples = 1\nvalue = [0, 1]"] ;
1147 -> 1149 ;
1150 [label="entropy = 0.0\nsamples = 2\nvalue = [2, 0]"] ;
1146 -> 1150 ;
1151 [label="entropy = 0.0\nsamples = 6\nvalue = [0, 6]"] ;
1119 -> 1151 ;
1152 [label="entropy = 0.0\nsamples = 4\nvalue = [4, 0]"] ;
1118 -> 1152 ;
1153 [label="x[7] <= 0.0\nentropy = 0.65\nsamples = 18\nvalue = [15, 3]"] ;
1117 -> 1153 ;
1154 [label="entropy = 0.0\nsamples = 9\nvalue = [9, 0]"] ;
1153 -> 1154 ;
1155 [label="x[6] <= 0.0\nentropy = 0.918\nsamples = 9\nvalue = [6, 3]"] ;
1153 -> 1155 ;
1156 [label="x[1] <= 0.177\nentropy = 0.811\nsamples = 5\nvalue = [3, 2]"] ;
1155 -> 1156 ;
1157 [label="entropy = 0.0\nsamples = 2\nvalue = [2, 0]"] ;
1156 -> 1157 ;
1158 [label="entropy = 0.0\nsamples = 3\nvalue = [1, 2]"] ;
1156 -> 1158 ;
1159 [label="entropy = 0.0\nsamples = 4\nvalue = [3, 1]"] ;
1155 -> 1159 ;
1160 [label="entropy = 0.0\nsamples = 3\nvalue = [0, 3]"] ;
1116 -> 1160 ;
1161 [label="x[6] <= 0.01\nentropy = 0.968\nsamples = 91\nvalue = [55, 36]"] ;
1097 -> 1161 ;
1162 [label="x[7] <= 0.085\nentropy = 0.996\nsamples = 56\nvalue = [26, 30]"] ;
1161 -> 1162 ;
1163 [label="x[3] <= 0.249\nentropy = 0.977\nsamples = 51\nvalue = [21, 30]"] ;
1162 -> 1163 ;
1164 [label="x[4] <= 0.055\nentropy = 0.954\nsamples = 47\nvalue = [17, 30]"] ;
1163 -> 1164 ;
1165 [label="x[4] <= 0.036\nentropy = 0.976\nsamples = 22\nvalue = [13, 9]"] ;
1164 -> 1165 ;
1166 [label="entropy = 0.0\nsamples = 3\nvalue = [0, 3]"] ;
1165 -> 1166 ;
1167 [label="x[5] <= 0.064\nentropy = 0.9\nsamples = 19\nvalue = [13, 6]"] ;
1165 -> 1167 ;
1168 [label="x[6] <= 0.0\nentropy = 0.874\nsamples = 17\nvalue = [12, 5]"] ;
1167 -> 1168 ;
1169 [label="x[5] <= 0.002\nentropy = 0.98\nsamples = 11\nvalue = [6, 5]"] ;
1168 -> 1169 ;
1170 [label="x[3] <= 0.029\nentropy = 0.863\nsamples = 7\nvalue = [2, 5]"] ;
1169 -> 1170 ;
1171 [label="entropy = 0.0\nsamples = 1\nvalue = [1, 0]"] ;
1170 -> 1171 ;
1172 [label="x[4] <= 0.039\nentropy = 0.65\nsamples = 6\nvalue = [1, 5]"] ;
1170 -> 1172 ;
1173 [label="entropy = 0.0\nsamples = 1\nvalue = [1, 0]"] ;
1172 -> 1173 ;
1174 [label="entropy = 0.0\nsamples = 5\nvalue = [0, 5]"] ;
1172 -> 1174 ;
1175 [label="entropy = 0.0\nsamples = 4\nvalue = [4, 0]"] ;
1169 -> 1175 ;
1176 [label="entropy = 0.0\nsamples = 6\nvalue = [6, 0]"] ;
1168 -> 1176 ;
1177 [label="x[3] <= 0.154\nentropy = 1.0\nsamples = 2\nvalue = [1, 1]"] ;
1167 -> 1177 ;
1178 [label="entropy = 0.0\nsamples = 1\nvalue = [1, 0]"] ;
1177 -> 1178 ;
1179 [label="entropy = 0.0\nsamples = 1\nvalue = [0, 1]"] ;
1177 -> 1179 ;
1180 [label="x[7] <= 0.011\nentropy = 0.634\nsamples = 25\nvalue = [4, 21]"] ;
1164 -> 1180 ;
1181 [label="x[4] <= 0.057\nentropy = 0.353\nsamples = 14\nvalue = [0, 14]"] ;
1180 -> 1181 ;
1182 [label="entropy = 0.0\nsamples = 1\nvalue = [0, 1]"] ;
1181 -> 1182 ;
1183 [label="entropy = 0.0\nsamples = 13\nvalue = [0, 13]"] ;
1181 -> 1183 ;
1184 [label="x[1] <= 0.373\nentropy = 0.881\nsamples = 11\nvalue = [4, 7]"] ;
1180 -> 1184 ;
1185 [label="x[5] <= 0.001\nentropy = 0.985\nsamples = 6\nvalue = [4, 2]"] ;
1184 -> 1185 ;
1186 [label="entropy = -0.553\nsamples = 3\nvalue = [3, 0]"] ;
1185 -> 1186 ;
1187 [label="entropy = 0.0\nsamples = 3\nvalue = [1, 2]"] ;
1185 -> 1187 ;
1188 [label="entropy = 0.0\nsamples = 5\nvalue = [0, 5]"] ;
1184 -> 1188 ;
1189 [label="entropy = 0.0\nsamples = 4\nvalue = [4, 0]"] ;
1163 -> 1189 ;
1190 [label="entropy = 0.0\nsamples = 5\nvalue = [5, 0]"] ;
1162 -> 1190 ;
1191 [label="x[4] <= 0.349\nentropy = 0.661\nsamples = 35\nvalue = [29, 6]"] ;
1161 -> 1191 ;
1192 [label="x[3] <= 0.029\nentropy = 0.602\nsamples = 33\nvalue = [29, 4]"] ;
1191 -> 1192 ;
1193 [label="x[5] <= 0.0\nentropy = 1.0\nsamples = 6\nvalue = [3, 3]"] ;
1192 -> 1193 ;
1194 [label="entropy = 0.0\nsamples = 2\nvalue = [2, 0]"] ;
1193 -> 1194 ;
1195 [label="x[3] <= 0.028\nentropy = 0.811\nsamples = 4\nvalue = [1, 3]"] ;
1193 -> 1195 ;
1196 [label="entropy = 0.811\nsamples = 3\nvalue = [1, 2]"] ;
1195 -> 1196 ;
1197 [label="entropy = 0.0\nsamples = 1\nvalue = [0, 1]"] ;
1195 -> 1197 ;
1198 [label="x[4] <= 0.207\nentropy = 0.229\nsamples = 27\nvalue = [26, 1]"] ;
1192 -> 1198 ;
1199 [label="x[7] <= 0.0\nentropy = 0.25\nsamples = 23\nvalue = [23, 0]"] ;
1198 -> 1199 ;
1200 [label="entropy = 0.0\nsamples = 2\nvalue = [2, 0]"] ;
1199 -> 1200 ;
1201 [label="entropy = 0.0\nsamples = 21\nvalue = [21, 0]"] ;
1199 -> 1201 ;
1202 [label="entropy = 0.0\nsamples = 4\nvalue = [3, 1]"] ;
1198 -> 1202 ;
1203 [label="entropy = 0.0\nsamples = 2\nvalue = [0, 2]"] ;
1191 -> 1203 ;
1204 [label="x[1] <= 0.158\nentropy = 0.685\nsamples = 3037\nvalue = [554, 2483]"] ;
0 -> 1204 [labeldistance=2.5, labelangle=-45, headlabel="False"] ;
1205 [label="x[1] <= 0.057\nentropy = 0.835\nsamples = 459\nvalue = [122, 337]"] ;
1204 -> 1205 ;
1206 [label="x[1] <= 0.006\nentropy = 0.759\nsamples = 319\nvalue = [70, 249]"] ;
1205 -> 1206 ;
1207 [label="entropy = 0.687\nsamples = 71\nvalue = [13, 58]"] ;
1206 -> 1207 ;
1208 [label="x[1] <= 0.032\nentropy = 0.778\nsamples = 248\nvalue = [57, 191]"] ;
1206 -> 1208 ;
1209 [label="x[1] <= 0.019\nentropy = 0.838\nsamples = 86\nvalue = [23, 63]"] ;
1208 -> 1209 ;
1210 [label="entropy = -0.402\nsamples = 42\nvalue = [10, 32]"] ;
1209 -> 1210 ;
1211 [label="entropy = 0.759\nsamples = 44\nvalue = [13, 31]"] ;
1209 -> 1211 ;
1212 [label="x[1] <= inf\nentropy = 0.741\nsamples = 162\nvalue = [34, 128]"] ;
1208 -> 1212 ;
1213 [label="entropy = 0.722\nsamples = 80\nvalue = [16, 64]"] ;
1212 -> 1213 ;
1214 [label="entropy = 0.759\nsamples = 82\nvalue = [18, 64]"] ;
1212 -> 1214 ;
1215 [label="x[1] <= 0.095\nentropy = 0.952\nsamples = 140\nvalue = [52, 88]"] ;
1205 -> 1215 ;
1216 [label="entropy = 0.978\nsamples = 61\nvalue = [27, 34]"] ;
1215 -> 1216 ;
1217 [label="entropy = 0.759\nsamples = 79\nvalue = [25, 54]"] ;
1215 -> 1217 ;
1218 [label="x[1] <= 0.323\nentropy = 0.652\nsamples = 2578\nvalue = [432, 2146]"] ;
1204 -> 1218 ;
1219 [label="x[1] <= 0.31\nentropy = 0.708\nsamples = 1077\nvalue = [208, 869]"] ;
1218 -> 1219 ;
1220 [label="entropy = 0.693\nsamples = 982\nvalue = [187, 795]"] ;
1219 -> 1220 ;
1221 [label="x[2] <= inf\nentropy = 0.879\nsamples = 95\nvalue = [21, 74]"] ;
